-1.42 1.46
0.99 -0.48
0.389995 -0.959992
1.28923 -1.00929
1.28434 -0.215225
0.271057 -0.29211
-0.610465 0.364212
-1 1.1
-0.618335 0.627837
-0.619548 0.745487
1.45245 -1.44145
-0.760081 -0.789366
1.08999 -0.559994

-1.41999 1.46
0.989904 -0.479609
0.393415 -0.94168
1.20977 -0.778774
0.930415 0.33911
0.6997 0.699306
0.183259 0.567593
-0.770735 1.04606
-0.603792 0.628633
-0.61911 0.745472
1.45245 -1.44144
-0.76008 -0.789366
1.08999 -0.559994

-1.41999 1.46
0.989904 -0.479609
0.393415 -0.94168
1.20977 -0.778774
0.930415 0.33911
0.6997 0.699306
0.183256 0.567588
-0.770711 1.04545
-0.604846 0.612983
-0.629981 0.537777
0.150577 -1.05348
-0.700084 -0.799985
0.00734697 -0.705157

-1.41999 1.46
0.989904 -0.479609
0.393415 -0.94168
1.20977 -0.778774
0.930409 0.339108
0.69915 0.699047
0.170385 0.560326
-0.801417 0.892054
-0.843512 0.182353
-0.999223 -0.0986607
-0.544352 -0.477593
-0.740248 -0.706245
-0.00361041 -0.698575

-1.41999 1.46
0.989904 -0.479609
0.393414 -0.941669
1.20941 -0.777821
0.921439 0.359208
0.619195 0.899344
0.127934 1.54927
0.097476 2.19634
-0.274448 1.39926
-0.852535 0.208089
-0.537392 -0.448672
-0.739979 -0.705315
-0.00361005 -0.698565

-0.143153 0.219292
0.701015 -0.599579
0.578066 -0.735887
1.14167 -0.754175
0.919064 0.34892
0.61922 0.898871
0.127935 1.54926
0.097476 2.19634
-0.274448 1.39926
-0.852535 0.208089
-0.537392 -0.448672
-0.739979 -0.705315
-0.00361005 -0.698565

-0.143153 0.219292
0.701015 -0.599579
0.578066 -0.735887
1.14167 -0.754175
0.919064 0.34892
0.61922 0.898871
0.127935 1.54926
0.0974764 2.19633
-0.2743 1.39848
-0.841326 0.194158
-0.439682 -0.534978
-0.174642 -0.942693
0.199145 -1.09831

-0.143153 0.219292
0.701015 -0.599579
0.578066 -0.735887
1.14167 -0.754175
0.919064 0.34892
0.61922 0.898871
0.127934 1.54925
0.0973846 2.19528
-0.273514 1.37101
-0.756646 0.0100748
-0.295732 -0.934381
-0.199876 -1.19874
-0.0405762 -1.15939

-0.143153 0.219292
0.701015 -0.599579
0.578066 -0.735887
1.14114 -0.753305
0.903115 0.367306
0.458806 1.0569
-0.308635 1.87956
-0.596095 2.10053
-0.46932 1.80821
-0.736036 0.285049
-0.298927 -0.902522
-0.199998 -1.19773
-0.0405762 -1.15939

-0.143153 0.219292
0.701015 -0.599579
0.58038 -0.707366
1.09642 -0.392334
0.841361 1.34511
0.79785 1.99406
0.355314 1.95169
-0.41306 2.08735
-0.456087 1.81021
-0.736036 0.285049
-0.298927 -0.902522
-0.199998 -1.19773
-0.0405762 -1.15939

-0.143153 0.219292
0.701015 -0.599579
0.58038 -0.707366
1.09642 -0.392334
0.841361 1.34511
0.79785 1.99406
0.204385 1.89268
-0.644465 1.73609
-0.797593 1.50217
-0.774289 1.01164
-0.364386 -0.58866
-0.199998 -1.19773
-0.0405762 -1.15939

-0.143153 0.219292
0.701015 -0.599579
0.58038 -0.707366
1.09642 -0.392334
0.841361 1.34511
0.79785 1.99406
0.204385 1.89268
-0.644465 1.73609
-0.978187 0.724527
-1.09749 0.20625
-0.803688 -0.11768
-0.199998 -1.19773
-0.0405762 -1.15939

-0.143153 0.219292
0.701015 -0.599579
0.58038 -0.707366
1.09642 -0.392334
0.841361 1.34511
0.79785 1.99406
0.204385 1.89268
-0.644465 1.73609
-0.978187 0.724527
-0.920085 -0.155282
-0.800031 -0.397629
-0.557804 -0.722012
-0.0405762 -1.15939

-0.143153 0.219292
0.701015 -0.599579
0.58038 -0.707366
0.681706 0.317691
0.404016 0.80496
0.560934 1.28301
0.204385 1.89268
-0.644465 1.73609
-0.978187 0.724527
-0.920085 -0.155282
-0.800031 -0.397629
-0.557804 -0.722012
-0.0405762 -1.15939

-0.143153 0.219292
0.701015 -0.599579
0.58038 -0.707366
0.681706 0.317691
0.404016 0.80496
0.560934 1.28301
0.204385 1.89268
-0.499096 1.17945
-0.405666 0.79926
-0.61082 0.41277
-0.800031 -0.397629
-0.557804 -0.722012
-0.0405762 -1.15939

-0.143153 0.219292
0.701015 -0.599579
0.829548 -0.287336
0.996658 0.00333576
0.757908 0.32698
0.560934 1.28301
0.204385 1.89268
-0.499096 1.17945
-0.405666 0.79926
-0.61082 0.41277
-0.800031 -0.397629
-0.557804 -0.722012
-0.0405762 -1.15939

0.35679 -0.503681
0.700011 -0.995515
0.752733 -0.709906
0.996658 0.00333576
0.757908 0.32698
0.560934 1.28301
0.204385 1.89268
-0.499096 1.17945
-0.405666 0.79926
-0.61082 0.41277
-0.800031 -0.397629
-0.557804 -0.722012
-0.0405762 -1.15939

0.35679 -0.503681
0.700011 -0.995515
0.752733 -0.709906
0.996658 0.00333576
0.757908 0.32698
0.560934 1.28301
0.204385 1.89268
-0.499096 1.17945
-0.63915 0.503651
-0.797749 0.301342
-0.800013 0.0154342
-0.557804 -0.722012
-0.0405762 -1.15939

0.35679 -0.503681
0.700011 -0.995515
0.752733 -0.709906
0.996658 0.00333576
0.757908 0.32698
0.560934 1.28301
0.204385 1.89268
-0.499096 1.17945
-0.911626 0.560617
-1.09619 0.596237
-0.977379 0.361057
-0.557804 -0.722012
-0.0405762 -1.15939

0.35679 -0.503681
0.700011 -0.995515
0.752733 -0.709906
0.996658 0.00333576
0.757908 0.32698
0.524959 1.70632
0.496068 1.99857
0.0907678 1.6639
-0.911626 0.560617
-1.09619 0.596237
-0.977379 0.361057
-0.557804 -0.722012
-0.0405762 -1.15939

0.35679 -0.503681
0.700011 -0.995515
0.752733 -0.709906
0.939673 0.237189
0.898011 0.398978
0.746064 0.93618
0.496068 1.99857
0.0907678 1.6639
-0.911626 0.560617
-1.09619 0.596237
-0.977379 0.361057
-0.557804 -0.722012
-0.0405762 -1.15939

0.35679 -0.503681
0.700011 -0.995515
0.752733 -0.709906
0.939673 0.237189
0.369352 0.693929
0.0109671 0.900532
0.204033 1.35184
0.0907678 1.6639
-0.911626 0.560617
-1.09619 0.596237
-0.977379 0.361057
-0.557804 -0.722012
-0.0405762 -1.15939

0.35679 -0.503681
0.700011 -0.995515
0.752733 -0.709906
0.939673 0.237189
0.369352 0.693929
0.0109671 0.900532
0.204033 1.35184
0.0907678 1.6639
-0.911626 0.560617
-1.09619 0.596237
-0.931892 -0.203901
-0.89473 -0.601879
-0.545789 -0.83055

0.35679 -0.503681
0.700011 -0.995515
0.752733 -0.709906
0.939673 0.237189
0.369352 0.693929
0.0109671 0.900532
0.204033 1.35184
0.0907678 1.6639
-0.911626 0.560617
-1.09619 0.596237
-0.931892 -0.203901
-0.604323 -0.776876
-0.402347 -0.898882

0.35679 -0.503681
0.700011 -0.995515
0.752733 -0.709906
0.939673 0.237189
0.369352 0.693929
0.0109671 0.900532
-0.091407 1.79038
-0.293435 2.09267
-0.55312 1.46293
-1.09619 0.596237
-0.931892 -0.203901
-0.604323 -0.776876
-0.402347 -0.898882

0.35679 -0.503681
0.817065 -0.646958
0.897423 -0.405423
0.916452 -0.13576
0.369352 0.693929
0.0109671 0.900532
-0.091407 1.79038
-0.293435 2.09267
-0.55312 1.46293
-1.09619 0.596237
-0.931892 -0.203901
-0.604323 -0.776876
-0.402347 -0.898882

0.35679 -0.503681
0.817065 -0.646958
0.897423 -0.405423
0.916452 -0.13576
0.369352 0.693929
0.0109671 0.900532
-0.447102 1.85445
-0.692601 1.90351
-0.638965 1.71838
-1.09619 0.596237
-0.931892 -0.203901
-0.604323 -0.776876
-0.402347 -0.898882

0.35679 -0.503681
0.817065 -0.646958
0.897423 -0.405423
0.84849 0.877239
0.791861 1.58288
0.471451 1.30875
-0.447102 1.85445
-0.692601 1.90351
-0.638965 1.71838
-1.09619 0.596237
-0.931892 -0.203901
-0.604323 -0.776876
-0.402347 -0.898882

0.35679 -0.503681
0.817065 -0.646958
0.897423 -0.405423
0.84849 0.877239
0.791861 1.58288
0.471451 1.30875
-0.447102 1.85445
-0.692601 1.90351
-0.638965 1.71838
-0.923584 0.248776
-0.802585 -0.00399645
-0.718355 -0.324147
-0.402347 -0.898882

0.35679 -0.503681
0.817065 -0.646958
0.897423 -0.405423
0.84849 0.877239
0.791861 1.58288
0.471451 1.30875
-0.447102 1.85445
-0.692601 1.90351
-0.674482 1.06759
-0.704539 0.59287
-0.74289 0.347473
-0.718355 -0.324147
-0.402347 -0.898882

0.35679 -0.503681
0.817065 -0.646958
0.897423 -0.405423
0.84849 0.877239
0.791861 1.58288
0.471451 1.30875
-0.447102 1.85445
-0.692601 1.90351
-0.674482 1.06759
-0.704539 0.59287
-0.74289 0.347473
-0.300949 -0.833069
-0.00844929 -1.19368

0.35679 -0.503681
0.817065 -0.646958
0.897423 -0.405423
0.84849 0.877239
0.791861 1.58288
0.471451 1.30875
-0.447102 1.85445
-0.692601 1.90351
-0.674482 1.06759
-0.704539 0.59287
-0.601963 -0.492364
-0.495681 -1.09421
-0.293652 -1.13932

0.35679 -0.503681
0.817065 -0.646958
0.897423 -0.405423
0.84849 0.877239
0.791861 1.58288
0.471451 1.30875
-0.447102 1.85445
-0.692601 1.90351
-0.674482 1.06759
-0.759845 -0.214104
-0.795564 -0.793109
-0.671991 -0.923755
-0.293652 -1.13932

0.35679 -0.503681
0.817065 -0.646958
0.897423 -0.405423
0.84849 0.877239
0.791861 1.58288
0.471451 1.30875
-0.447102 1.85445
-0.692601 1.90351
-0.862798 0.21857
-0.994452 -0.395706
-0.913833 -0.565691
-0.671991 -0.923755
-0.293652 -1.13932

0.35679 -0.503681
0.817065 -0.646958
0.897423 -0.405423
0.84849 0.877239
0.791861 1.58288
0.471451 1.30875
-0.447102 1.85445
-0.692601 1.90351
-0.862798 0.21857
-0.824358 -0.513719
-0.705089 -0.599183
-0.688171 -0.736734
-0.293652 -1.13932

0.35679 -0.503681
0.817065 -0.646958
0.897423 -0.405423
0.84849 0.877239
0.791861 1.58288
0.471451 1.30875
-0.447102 1.85445
-0.985276 0.805538
-1.19174 0.00535497
-1.04103 -0.217399
-0.705089 -0.599183
-0.688171 -0.736734
-0.293652 -1.13932

0.35679 -0.503681
0.817065 -0.646958
0.897423 -0.405423
0.84849 0.877239
0.791861 1.58288
0.471451 1.30875
-0.765552 1.01674
-0.999629 0.41022
-1.0813 0.232657
-1.04103 -0.217399
-0.705089 -0.599183
-0.688171 -0.736734
-0.293652 -1.13932

0.35679 -0.503681
0.817065 -0.646958
0.897423 -0.405423
0.84849 0.877239
0.791861 1.58288
-0.317293 1.01616
-0.896518 0.805613
-0.942331 0.634389
-1.0813 0.232657
-1.04103 -0.217399
-0.705089 -0.599183
-0.688171 -0.736734
-0.293652 -1.13932

0.35679 -0.503681
0.817065 -0.646958
0.897423 -0.405423
0.84849 0.877239
0.0499875 1.76499
-0.49514 1.87649
-0.668811 1.43408
-0.942331 0.634389
-1.0813 0.232657
-1.04103 -0.217399
-0.705089 -0.599183
-0.688171 -0.736734
-0.293652 -1.13932

0.35679 -0.503681
0.817065 -0.646958
0.897423 -0.405423
0.304608 1.69308
-0.0959053 2.28539
-0.268559 2.11934
-0.668811 1.43408
-0.942331 0.634389
-1.0813 0.232657
-1.04103 -0.217399
-0.705089 -0.599183
-0.688171 -0.736734
-0.293652 -1.13932

0.35679 -0.503681
0.817065 -0.646958
0.897423 -0.405423
0.304608 1.69308
-0.0959053 2.28539
-0.268559 2.11934
-0.572155 0.956513
-0.512385 0.600963
-0.748467 0.442986
-1.04103 -0.217399
-0.705089 -0.599183
-0.688171 -0.736734
-0.293652 -1.13932

0.35679 -0.503681
0.817065 -0.646958
0.897423 -0.405423
0.359146 1.9829
0.385768 2.20245
0.11367 2.16545
-0.572155 0.956513
-0.512385 0.600963
-0.748467 0.442986
-1.04103 -0.217399
-0.705089 -0.599183
-0.688171 -0.736734
-0.293652 -1.13932

0.35679 -0.503681
0.817065 -0.646958
0.898894 0.910678
0.884099 1.90244
0.679328 2.02979
0.11367 2.16545
-0.572155 0.956513
-0.512385 0.600963
-0.748467 0.442986
-1.04103 -0.217399
-0.705089 -0.599183
-0.688171 -0.736734
-0.293652 -1.13932

0.35679 -0.503681
0.817065 -0.646958
0.898894 0.910678
0.884099 1.90244
0.679328 2.02979
0.11367 2.16545
-0.572155 0.956513
-0.512385 0.600963
-0.748467 0.442986
-1.04103 -0.217399
-0.705089 -0.599183
-0.295897 -0.886802
-0.00883891 -1.00419

0.35679 -0.503681
0.807352 0.0627787
0.803046 0.609569
0.836232 1.16112
0.679328 2.02979
0.11367 2.16545
-0.572155 0.956513
-0.512385 0.600963
-0.748467 0.442986
-1.04103 -0.217399
-0.705089 -0.599183
-0.295897 -0.886802
-0.00883891 -1.00419

0.551845 -0.274259
0.703382 -0.0948725
0.744482 0.206303
0.836232 1.16112
0.679328 2.02979
0.11367 2.16545
-0.572155 0.956513
-0.512385 0.600963
-0.748467 0.442986
-1.04103 -0.217399
-0.705089 -0.599183
-0.295897 -0.886802
-0.00883891 -1.00419

0.888789 -0.783071
0.814958 -0.495016
0.744482 0.206303
0.836232 1.16112
0.679328 2.02979
0.11367 2.16545
-0.572155 0.956513
-0.512385 0.600963
-0.748467 0.442986
-1.04103 -0.217399
-0.705089 -0.599183
-0.295897 -0.886802
-0.00883891 -1.00419

0.888789 -0.783071
0.814958 -0.495016
0.744482 0.206303
0.836232 1.16112
0.679328 2.02979
0.11367 2.16545
-0.572155 0.956513
-0.512385 0.600963
-0.748467 0.442986
-1.04103 -0.217399
-0.705089 -0.599183
0.0984179 -1.00761
0.386549 -1.09685

0.888789 -0.783071
0.814958 -0.495016
0.744482 0.206303
0.836232 1.16112
0.679328 2.02979
-0.403266 1.61922
-0.792344 1.19182
-0.675112 0.939886
-0.748467 0.442986
-1.04103 -0.217399
-0.705089 -0.599183
0.0984179 -1.00761
0.386549 -1.09685

0.888789 -0.783071
0.814958 -0.495016
0.744482 0.206303
0.836232 1.16112
-0.0998974 2.06945
-0.689822 2.08351
-0.740176 1.70488
-0.675112 0.939886
-0.748467 0.442986
-1.04103 -0.217399
-0.705089 -0.599183
0.0984179 -1.00761
0.386549 -1.09685

0.888789 -0.783071
0.814958 -0.495016
0.437349 0.654014
0.222268 1.00564
0.0692696 1.46619
-0.689822 2.08351
-0.740176 1.70488
-0.675112 0.939886
-0.748467 0.442986
-1.04103 -0.217399
-0.705089 -0.599183
0.0984179 -1.00761
0.386549 -1.09685

0.888789 -0.783071
0.814958 -0.495016
0.437349 0.654014
0.266049 1.62202
0.291763 2.07737
-0.13232 2.0928
-0.740176 1.70488
-0.675112 0.939886
-0.748467 0.442986
-1.04103 -0.217399
-0.705089 -0.599183
0.0984179 -1.00761
0.386549 -1.09685

0.888789 -0.783071
0.806546 -0.0479106
0.7868 0.312886
0.566336 0.878535
0.291763 2.07737
-0.13232 2.0928
-0.740176 1.70488
-0.675112 0.939886
-0.748467 0.442986
-1.04103 -0.217399
-0.705089 -0.599183
0.0984179 -1.00761
0.386549 -1.09685

1.00739 -0.455655
1.08911 -0.194357
0.962673 0.0248815
0.566336 0.878535
0.291763 2.07737
-0.13232 2.0928
-0.740176 1.70488
-0.675112 0.939886
-0.748467 0.442986
-1.04103 -0.217399
-0.705089 -0.599183
0.0984179 -1.00761
0.386549 -1.09685

1.00739 -0.455655
1.08911 -0.194357
0.962673 0.0248815
0.566336 0.878535
0.291763 2.07737
-0.13232 2.0928
-0.740176 1.70488
-0.675112 0.939886
-0.748467 0.442986
-1.04103 -0.217399
-0.705089 -0.599183
0.267512 -0.947273
0.399492 -0.907441

1.00739 -0.455655
1.08911 -0.194357
0.962673 0.0248815
0.566336 0.878535
0.291763 2.07737
-0.13232 2.0928
-0.740176 1.70488
-0.675112 0.939886
-0.748467 0.442986
-0.738141 -0.543562
-0.507896 -0.792269
-0.162172 -0.864823
0.399492 -0.907441

1.00739 -0.455655
1.08911 -0.194357
0.962673 0.0248815
0.566336 0.878535
0.291763 2.07737
-0.561447 1.87323
-0.893735 1.70019
-0.800822 1.36478
-0.748467 0.442986
-0.738141 -0.543562
-0.507896 -0.792269
-0.162172 -0.864823
0.399492 -0.907441

1.00739 -0.455655
1.08911 -0.194357
0.962673 0.0248815
0.566336 0.878535
0.291763 2.07737
-0.561447 1.87323
-0.953046 1.47683
-0.992053 1.30258
-0.888858 0.921323
-0.738141 -0.543562
-0.507896 -0.792269
-0.162172 -0.864823
0.399492 -0.907441

1.00739 -0.455655
1.08911 -0.194357
0.962673 0.0248815
0.566336 0.878535
0.291763 2.07737
-0.561447 1.87323
-0.953046 1.47683
-1.10794 0.799579
-1.18737 0.421166
-0.995533 -0.0177198
-0.507896 -0.792269
-0.162172 -0.864823
0.399492 -0.907441

1.00739 -0.455655
1.08911 -0.194357
0.538286 0.456194
0.21513 0.803244
0.240702 1.36658
-0.561447 1.87323
-0.953046 1.47683
-1.10794 0.799579
-1.18737 0.421166
-0.995533 -0.0177198
-0.507896 -0.792269
-0.162172 -0.864823
0.399492 -0.907441

1.00739 -0.455655
1.08911 -0.194357
0.538286 0.456194
0.21513 0.803244
0.240702 1.36658
-0.561447 1.87323
-0.953046 1.47683
-1.10794 0.799579
-1.18737 0.421166
-0.995533 -0.0177198
-0.507896 -0.792269
0.316849 -0.828808
0.687379 -0.804513

0.904586 -0.593836
0.984203 -0.419388
0.538286 0.456194
0.21513 0.803244
0.240702 1.36658
-0.561447 1.87323
-0.953046 1.47683
-1.10794 0.799579
-1.18737 0.421166
-0.995533 -0.0177198
-0.507896 -0.792269
0.316849 -0.828808
0.687379 -0.804513

0.708879 -0.408413
0.826782 -0.408649
0.538286 0.456194
0.21513 0.803244
0.240702 1.36658
-0.561447 1.87323
-0.953046 1.47683
-1.10794 0.799579
-1.18737 0.421166
-0.995533 -0.0177198
-0.507896 -0.792269
0.316849 -0.828808
0.687379 -0.804513

0.708879 -0.408413
1.03319 -0.0720335
1.17082 0.211298
0.759816 0.469618
0.240702 1.36658
-0.561447 1.87323
-0.953046 1.47683
-1.10794 0.799579
-1.18737 0.421166
-0.995533 -0.0177198
-0.507896 -0.792269
0.316849 -0.828808
0.687379 -0.804513

0.708879 -0.408413
1.03319 -0.0720335
0.91083 0.3155
0.70268 0.403119
0.494329 0.832831
-0.561447 1.87323
-0.953046 1.47683
-1.10794 0.799579
-1.18737 0.421166
-0.995533 -0.0177198
-0.507896 -0.792269
0.316849 -0.828808
0.687379 -0.804513

0.708879 -0.408413
1.03319 -0.0720335
0.91083 0.3155
0.590931 0.511671
0.499742 0.610594
0.0237893 1.17122
-0.953046 1.47683
-1.10794 0.799579
-1.18737 0.421166
-0.995533 -0.0177198
-0.507896 -0.792269
0.316849 -0.828808
0.687379 -0.804513

0.708879 -0.408413
1.03319 -0.0720335
0.91083 0.3155
0.595923 0.725449
0.595368 0.886629
0.340998 1.02191
-0.953046 1.47683
-1.10794 0.799579
-1.18737 0.421166
-0.995533 -0.0177198
-0.507896 -0.792269
0.316849 -0.828808
0.687379 -0.804513

0.708879 -0.408413
0.959981 0.0225266
0.900508 0.110107
0.763062 0.381664
0.595368 0.886629
0.340998 1.02191
-0.953046 1.47683
-1.10794 0.799579
-1.18737 0.421166
-0.995533 -0.0177198
-0.507896 -0.792269
0.316849 -0.828808
0.687379 -0.804513

0.708879 -0.408413
0.959981 0.0225266
0.900508 0.110107
0.763062 0.381664
0.488148 0.948849
0.397192 1.00104
-0.210477 1.21514
-1.10794 0.799579
-1.18737 0.421166
-0.995533 -0.0177198
-0.507896 -0.792269
0.316849 -0.828808
0.687379 -0.804513

0.708879 -0.408413
0.959981 0.0225266
0.900508 0.110107
0.763062 0.381664
0.488148 0.948849
0.0699517 0.890879
-0.200506 0.820051
-0.610421 0.79981
-1.18737 0.421166
-0.995533 -0.0177198
-0.507896 -0.792269
0.316849 -0.828808
0.687379 -0.804513

0.708879 -0.408413
0.959981 0.0225266
0.900508 0.110107
0.763062 0.381664
0.488148 0.948849
-0.0777434 0.950581
-0.200025 0.991183
-0.385873 0.909337
-1.18737 0.421166
-0.995533 -0.0177198
-0.507896 -0.792269
0.316849 -0.828808
0.687379 -0.804513

0.813282 -0.294563
0.902981 -0.18894
0.90023 -0.0592947
0.763062 0.381664
0.488148 0.948849
-0.0777434 0.950581
-0.200025 0.991183
-0.385873 0.909337
-1.18737 0.421166
-0.995533 -0.0177198
-0.507896 -0.792269
0.316849 -0.828808
0.687379 -0.804513

0.813282 -0.294563
0.902981 -0.18894
0.90023 -0.0592947
0.763062 0.381664
0.488148 0.948849
-0.0777434 0.950581
-0.200025 0.991183
-0.557204 0.631534
-0.724563 0.401067
-0.834343 0.210113
-0.507896 -0.792269
0.316849 -0.828808
0.687379 -0.804513

0.813282 -0.294563
0.902981 -0.18894
0.90023 -0.0592947
0.763062 0.381664
0.488148 0.948849
-0.0777434 0.950581
-0.200025 0.991183
-0.557204 0.631534
-0.765644 0.291571
-0.801755 0.200517
-0.666968 -0.251906
0.316849 -0.828808
0.687379 -0.804513

0.813282 -0.294563
0.902981 -0.18894
0.90023 -0.0592947
0.763062 0.381664
0.488148 0.948849
-0.0777434 0.950581
-0.200025 0.991183
-0.557204 0.631534
-0.765644 0.291571
-0.800801 -0.0172542
-0.793109 -0.202689
-0.29041 -0.486909
0.687379 -0.804513

0.813282 -0.294563
0.902981 -0.18894
0.90023 -0.0592947
0.763062 0.381664
0.488148 0.948849
-0.0777434 0.950581
-0.200025 0.991183
-0.557204 0.631534
-0.765644 0.291571
-0.800801 -0.0172542
-0.471124 -0.635531
-0.204747 -0.973063
0.205641 -0.910638

0.813282 -0.294563
0.902981 -0.18894
0.90023 -0.0592947
0.763062 0.381664
0.488148 0.948849
-0.0777434 0.950581
-0.200025 0.991183
-0.557204 0.631534
-0.765644 0.291571
-0.691961 -0.549931
-0.593144 -0.98061
-0.418985 -0.987664
0.205641 -0.910638

0.813282 -0.294563
0.902981 -0.18894
0.90023 -0.0592947
0.763062 0.381664
0.488148 0.948849
-0.0777434 0.950581
-0.200025 0.991183
-0.796837 0.28976
-0.987368 0.0157157
-0.858666 -0.252319
-0.593144 -0.98061
-0.418985 -0.987664
0.205641 -0.910638

0.813282 -0.294563
0.902981 -0.18894
0.90023 -0.0592947
0.763062 0.381664
0.488148 0.948849
-0.0777434 0.950581
-0.578245 0.779813
-0.894367 0.583061
-0.94016 0.331424
-0.858666 -0.252319
-0.593144 -0.98061
-0.418985 -0.987664
0.205641 -0.910638

0.813282 -0.294563
0.902981 -0.18894
0.90023 -0.0592947
0.763062 0.381664
0.488148 0.948849
-0.0777434 0.950581
-0.859725 0.790704
-1.08863 0.788003
-1.02639 0.584214
-0.858666 -0.252319
-0.593144 -0.98061
-0.418985 -0.987664
0.205641 -0.910638

0.813282 -0.294563
0.902981 -0.18894
0.90023 -0.0592947
0.763062 0.381664
0.488148 0.948849
-0.0777434 0.950581
-0.935282 0.849575
-1.00496 0.893728
-1.01218 0.754309
-0.858666 -0.252319
-0.593144 -0.98061
-0.418985 -0.987664
0.205641 -0.910638

0.813282 -0.294563
0.902981 -0.18894
0.90023 -0.0592947
0.763062 0.381664
0.488148 0.948849
-0.466166 0.977158
-0.807671 0.991471
-0.894736 0.95088
-1.01218 0.754309
-0.858666 -0.252319
-0.593144 -0.98061
-0.418985 -0.987664
0.205641 -0.910638

0.813282 -0.294563
0.902981 -0.18894
0.90023 -0.0592947
0.763062 0.381664
0.488148 0.948849
-0.466166 0.977158
-0.807671 0.991471
-0.894736 0.95088
-0.89825 0.0271217
-0.803367 -0.580043
-0.704214 -0.776244
-0.418985 -0.987664
0.205641 -0.910638

0.813282 -0.294563
0.902981 -0.18894
0.90023 -0.0592947
0.763062 0.381664
0.488148 0.948849
-0.466166 0.977158
-0.807671 0.991471
-1.00478 0.280289
-1.08828 -0.280994
-0.962391 -0.429913
-0.704214 -0.776244
-0.418985 -0.987664
0.205641 -0.910638

0.813282 -0.294563
0.902981 -0.18894
0.90023 -0.0592947
0.763062 0.381664
0.488148 0.948849
-0.64485 1.20348
-0.800451 1.37598
-0.895171 0.879612
-1.08828 -0.280994
-0.962391 -0.429913
-0.704214 -0.776244
-0.418985 -0.987664
0.205641 -0.910638

0.813282 -0.294563
0.902981 -0.18894
0.90023 -0.0592947
0.763062 0.381664
0.488148 0.948849
-0.888083 1.20162
-1.08218 1.21047
-1.00463 1.05083
-1.08828 -0.280994
-0.962391 -0.429913
-0.704214 -0.776244
-0.418985 -0.987664
0.205641 -0.910638

0.813282 -0.294563
0.902981 -0.18894
0.90023 -0.0592947
0.763062 0.381664
0.488148 0.948849
-0.947797 1.36082
-1.00495 1.48257
-1.00216 1.29049
-1.08828 -0.280994
-0.962391 -0.429913
-0.704214 -0.776244
-0.418985 -0.987664
0.205641 -0.910638

0.813282 -0.294563
0.902981 -0.18894
0.90023 -0.0592947
0.763062 0.381664
0.488148 0.948849
-0.762523 1.59478
-0.624661 1.78067
-0.787927 1.56191
-1.08828 -0.280994
-0.962391 -0.429913
-0.704214 -0.776244
-0.418985 -0.987664
0.205641 -0.910638

0.813282 -0.294563
0.902981 -0.18894
0.90023 -0.0592947
0.763062 0.381664
0.488148 0.948849
-0.72927 1.86348
-0.695359 2.08033
-0.741162 1.8481
-1.08828 -0.280994
-0.962391 -0.429913
-0.704214 -0.776244
-0.418985 -0.987664
0.205641 -0.910638

0.813282 -0.294563
0.902981 -0.18894
0.90023 -0.0592947
0.763062 0.381664
0.488148 0.948849
-0.554424 1.93598
-0.418401 2.005
-0.560001 1.92876
-1.08828 -0.280994
-0.962391 -0.429913
-0.704214 -0.776244
-0.418985 -0.987664
0.205641 -0.910638

0.813282 -0.294563
0.902981 -0.18894
0.90023 -0.0592947
0.763062 0.381664
0.488148 0.948849
-0.554424 1.93598
-0.418401 2.005
-0.560001 1.92876
-1.08828 -0.280994
-0.962391 -0.429913
-0.704214 -0.776244
-0.0908214 -1.10024
0.200355 -1.18177

0.813282 -0.294563
0.902981 -0.18894
0.90023 -0.0592947
0.763062 0.381664
0.488148 0.948849
-0.554424 1.93598
-0.418401 2.005
-0.560001 1.92876
-1.08828 -0.280994
-0.962391 -0.429913
-0.490256 -1.00055
-0.286675 -1.19365
-0.0644913 -1.19142

0.813282 -0.294563
0.902981 -0.18894
0.90023 -0.0592947
0.763062 0.381664
0.0187882 1.61004
-0.409945 2.183
-0.408677 2.10805
-0.560001 1.92876
-1.08828 -0.280994
-0.962391 -0.429913
-0.490256 -1.00055
-0.286675 -1.19365
-0.0644913 -1.19142

0.813282 -0.294563
0.902981 -0.18894
0.90023 -0.0592947
0.763062 0.381664
-0.0438872 1.86856
-0.120177 2.1054
-0.245812 2.1038
-0.560001 1.92876
-1.08828 -0.280994
-0.962391 -0.429913
-0.490256 -1.00055
-0.286675 -1.19365
-0.0644913 -1.19142

0.813282 -0.294563
0.902981 -0.18894
0.90023 -0.0592947
0.763062 0.381664
0.0845867 2.09583
0.178932 2.2872
-0.0109688 2.20716
-0.560001 1.92876
-1.08828 -0.280994
-0.962391 -0.429913
-0.490256 -1.00055
-0.286675 -1.19365
-0.0644913 -1.19142

0.813282 -0.294563
0.902981 -0.18894
0.90023 -0.0592947
0.763062 0.381664
0.355658 2.15062
0.571999 2.2058
0.310357 2.20339
-0.560001 1.92876
-1.08828 -0.280994
-0.962391 -0.429913
-0.490256 -1.00055
-0.286675 -1.19365
-0.0644913 -1.19142

0.813282 -0.294563
0.902981 -0.18894
0.90023 -0.0592947
0.763062 0.381664
0.483957 2.01902
0.598118 1.92055
0.462444 2.04409
-0.560001 1.92876
-1.08828 -0.280994
-0.962391 -0.429913
-0.490256 -1.00055
-0.286675 -1.19365
-0.0644913 -1.19142

0.813282 -0.294563
0.902981 -0.18894
0.90023 -0.0592947
0.763062 0.381664
0.649638 1.9042
0.786292 1.80819
0.639403 1.91613
-0.560001 1.92876
-1.08828 -0.280994
-0.962391 -0.429913
-0.490256 -1.00055
-0.286675 -1.19365
-0.0644913 -1.19142

0.813282 -0.294563
0.902981 -0.18894
0.90023 -0.0592947
0.763062 0.381664
0.833013 1.79733
0.98534 1.70742
0.828135 1.80301
-0.560001 1.92876
-1.08828 -0.280994
-0.962391 -0.429913
-0.490256 -1.00055
-0.286675 -1.19365
-0.0644913 -1.19142

0.813282 -0.294563
0.902981 -0.18894
0.90023 -0.0592947
0.73011 1.0183
0.709218 1.61367
0.836238 1.65129
0.828135 1.80301
-0.560001 1.92876
-1.08828 -0.280994
-0.962391 -0.429913
-0.490256 -1.00055
-0.286675 -1.19365
-0.0644913 -1.19142

0.813282 -0.294563
0.953595 0.170476
0.993016 0.460849
0.87091 0.747903
0.709218 1.61367
0.836238 1.65129
0.828135 1.80301
-0.560001 1.92876
-1.08828 -0.280994
-0.962391 -0.429913
-0.490256 -1.00055
-0.286675 -1.19365
-0.0644913 -1.19142

0.813282 -0.294563
0.953595 0.170476
0.944569 0.585411
0.897943 0.703387
0.808586 1.13779
0.836238 1.65129
0.828135 1.80301
-0.560001 1.92876
-1.08828 -0.280994
-0.962391 -0.429913
-0.490256 -1.00055
-0.286675 -1.19365
-0.0644913 -1.19142

0.986668 -0.485332
0.977726 -0.178173
0.944569 0.585411
0.897943 0.703387
0.808586 1.13779
0.836238 1.65129
0.828135 1.80301
-0.560001 1.92876
-1.08828 -0.280994
-0.962391 -0.429913
-0.490256 -1.00055
-0.286675 -1.19365
-0.0644913 -1.19142

0.986668 -0.485332
0.977726 -0.178173
0.944569 0.585411
0.897943 0.703387
0.808586 1.13779
0.836238 1.65129
0.0867114 1.28229
-0.597116 0.881384
-0.834786 0.28021
-0.962391 -0.429913
-0.490256 -1.00055
-0.286675 -1.19365
-0.0644913 -1.19142

0.986668 -0.485332
0.977726 -0.178173
0.944569 0.585411
0.897943 0.703387
0.808586 1.13779
0.836238 1.65129
0.0867114 1.28229
-0.597116 0.881384
-0.834786 0.28021
-0.962391 -0.429913
-0.490256 -1.00055
0.0174036 -1.04145
0.273465 -0.921215

0.986668 -0.485332
0.977726 -0.178173
0.944569 0.585411
0.897943 0.703387
0.808586 1.13779
0.836238 1.65129
0.0418415 1.18796
-0.043888 1.08393
-0.402816 0.70442
-0.962391 -0.429913
-0.490256 -1.00055
0.0174036 -1.04145
0.273465 -0.921215

0.986668 -0.485332
0.977726 -0.178173
0.944569 0.585411
0.897943 0.703387
0.808586 1.13779
0.836238 1.65129
0.0418415 1.18796
-0.043888 1.08393
-0.402816 0.70442
-0.962391 -0.429913
-0.490256 -1.00055
0.318382 -0.86505
0.575771 -0.716414

0.986668 -0.485332
0.977726 -0.178173
0.944569 0.585411
0.897943 0.703387
0.808586 1.13779
0.836238 1.65129
0.0418415 1.18796
-0.043888 1.08393
-0.659248 0.444256
-0.904673 0.15282
-0.70159 -0.381341
0.318382 -0.86505
0.575771 -0.716414

0.986668 -0.485332
0.989195 0.0680496
0.995809 0.321577
0.950495 0.495674
0.808586 1.13779
0.836238 1.65129
0.0418415 1.18796
-0.043888 1.08393
-0.659248 0.444256
-0.904673 0.15282
-0.70159 -0.381341
0.318382 -0.86505
0.575771 -0.716414

0.986668 -0.485332
0.989195 0.0680496
0.995809 0.321577
0.61609 1.37183
0.338805 2.11895
0.56057 1.93337
0.0418415 1.18796
-0.043888 1.08393
-0.659248 0.444256
-0.904673 0.15282
-0.70159 -0.381341
0.318382 -0.86505
0.575771 -0.716414

0.986668 -0.485332
0.989195 0.0680496
0.995809 0.321577
0.61609 1.37183
0.338805 2.11895
0.56057 1.93337
0.0418415 1.18796
-0.226656 0.886886
-0.419962 0.680308
-0.645659 0.433649
-0.70159 -0.381341
0.318382 -0.86505
0.575771 -0.716414

0.986668 -0.485332
0.989195 0.0680496
0.995809 0.321577
0.61609 1.37183
0.338805 2.11895
0.56057 1.93337
0.0418415 1.18796
-0.264236 0.893605
-0.309321 0.88293
-0.468549 0.6726
-0.70159 -0.381341
0.318382 -0.86505
0.575771 -0.716414

0.986668 -0.485332
0.989195 0.0680496
0.995809 0.321577
0.61609 1.37183
0.338805 2.11895
0.56057 1.93337
0.0418415 1.18796
-0.5383 1.30611
-0.761531 1.63594
-0.638099 1.19816
-0.70159 -0.381341
0.318382 -0.86505
0.575771 -0.716414

1.04455 -0.237476
1.09124 0.00538273
1.04902 0.15735
0.61609 1.37183
0.338805 2.11895
0.56057 1.93337
0.0418415 1.18796
-0.5383 1.30611
-0.761531 1.63594
-0.638099 1.19816
-0.70159 -0.381341
0.318382 -0.86505
0.575771 -0.716414

1.04455 -0.237476
1.09124 0.00538273
1.04902 0.15735
0.61609 1.37183
0.338805 2.11895
0.56057 1.93337
0.0418415 1.18796
-0.5383 1.30611
-0.761531 1.63594
-0.638099 1.19816
-0.0889629 -0.696762
0.485507 -0.989231
0.537139 -0.861

1.04455 -0.237476
1.09124 0.00538273
1.04902 0.15735
0.61609 1.37183
0.338805 2.11895
0.56057 1.93337
0.0418415 1.18796
-0.5383 1.30611
-0.984712 1.31225
-1.15477 1.01595
-0.654482 0.166892
0.485507 -0.989231
0.537139 -0.861

1.04455 -0.237476
1.09124 0.00538273
1.04902 0.15735
0.607914 1.64022
0.578791 1.91778
0.580607 1.91641
0.0418415 1.18796
-0.5383 1.30611
-0.984712 1.31225
-1.15477 1.01595
-0.654482 0.166892
0.485507 -0.989231
0.537139 -0.861

1.04455 -0.237476
1.09124 0.00538273
1.04902 0.15735
0.607914 1.64022
0.578791 1.91778
0.580607 1.91641
0.0418415 1.18796
-0.5383 1.30611
-0.984712 1.31225
-1.02552 0.348357
-0.879892 -0.261762
-0.217374 -0.639577
0.537139 -0.861

1.04455 -0.237476
0.943735 0.407828
0.820569 0.746917
0.705199 1.21468
0.578791 1.91778
0.580607 1.91641
0.0418415 1.18796
-0.5383 1.30611
-0.984712 1.31225
-1.02552 0.348357
-0.879892 -0.261762
-0.217374 -0.639577
0.537139 -0.861

1.04455 -0.237476
0.943735 0.407828
0.911293 1.17825
0.975443 1.5679
0.791762 1.7571
0.580607 1.91641
0.0418415 1.18796
-0.5383 1.30611
-0.984712 1.31225
-1.02552 0.348357
-0.879892 -0.261762
-0.217374 -0.639577
0.537139 -0.861

1.04455 -0.237476
0.943735 0.407828
0.911293 1.17825
0.975443 1.5679
0.791762 1.7571
0.580607 1.91641
0.0418415 1.18796
-0.771354 1.20207
-0.998716 1.11783
-1.01264 0.727766
-0.879892 -0.261762
-0.217374 -0.639577
0.537139 -0.861

0.87092 0.234944
0.720644 0.675253
0.804816 0.937247
0.975443 1.5679
0.791762 1.7571
0.580607 1.91641
0.0418415 1.18796
-0.771354 1.20207
-0.998716 1.11783
-1.01264 0.727766
-0.879892 -0.261762
-0.217374 -0.639577
0.537139 -0.861

0.87092 0.234944
0.720644 0.675253
0.804816 0.937247
0.975443 1.5679
0.791762 1.7571
0.580607 1.91641
0.0418415 1.18796
-0.771354 1.20207
-0.998716 1.11783
-1.01264 0.727766
-0.789392 -0.53254
-0.658784 -0.7863
-0.0852432 -0.830312

0.87092 0.234944
0.720644 0.675253
0.804816 0.937247
0.975443 1.5679
0.791762 1.7571
0.580607 1.91641
0.0418415 1.18796
-0.771354 1.20207
-0.998716 1.11783
-1.00629 0.312031
-0.981867 -0.137242
-0.830155 -0.441615
-0.0852432 -0.830312

0.87092 0.234944
0.720644 0.675253
0.804816 0.937247
0.975443 1.5679
0.444918 1.97917
0.141717 2.17538
0.0710017 1.69539
-0.771354 1.20207
-0.998716 1.11783
-1.00629 0.312031
-0.981867 -0.137242
-0.830155 -0.441615
-0.0852432 -0.830312

0.87092 0.234944
0.720644 0.675253
0.804816 0.937247
0.975443 1.5679
0.444918 1.97917
0.141717 2.17538
0.0710017 1.69539
-0.771354 1.20207
-0.998716 1.11783
-1.00629 0.312031
-0.981867 -0.137242
-0.0642416 -0.520894
0.631291 -0.620152

0.87092 0.234944
0.720644 0.675253
0.804816 0.937247
0.975443 1.5679
0.444918 1.97917
0.141717 2.17538
0.0710017 1.69539
-0.771354 1.20207
-0.998716 1.11783
-1.00629 0.312031
-0.391286 -0.618333
0.176694 -1.04892
0.415774 -0.859933

0.87092 0.234944
0.720644 0.675253
0.804816 0.937247
0.975443 1.5679
0.444918 1.97917
0.141717 2.17538
0.0710017 1.69539
-0.771354 1.20207
-0.998716 1.11783
-1.00629 0.312031
-0.295862 -0.908501
-0.166512 -1.18657
0.108592 -1.02958

0.87092 0.234944
0.720644 0.675253
0.804816 0.937247
0.975443 1.5679
-0.0754627 2.03934
-0.533542 2.10675
-0.263165 1.89689
-0.771354 1.20207
-0.998716 1.11783
-1.00629 0.312031
-0.295862 -0.908501
-0.166512 -1.18657
0.108592 -1.02958

0.87092 0.234944
0.720644 0.675253
0.802422 1.46561
0.815843 1.96098
0.359788 2.01978
-0.533542 2.10675
-0.263165 1.89689
-0.771354 1.20207
-0.998716 1.11783
-1.00629 0.312031
-0.295862 -0.908501
-0.166512 -1.18657
0.108592 -1.02958

0.87092 0.234944
0.720644 0.675253
0.802422 1.46561
0.815843 1.96098
0.359788 2.01978
-0.533542 2.10675
-0.529608 1.6999
-0.797393 1.47289
-0.900089 1.30751
-1.00629 0.312031
-0.295862 -0.908501
-0.166512 -1.18657
0.108592 -1.02958

0.87092 0.234944
0.720644 0.675253
0.802422 1.46561
0.815843 1.96098
0.359788 2.01978
-0.533542 2.10675
-0.529608 1.6999
-0.797393 1.47289
-0.99914 0.758764
-1.09141 0.210273
-0.694294 -0.359265
-0.166512 -1.18657
0.108592 -1.02958

0.87092 0.234944
0.720644 0.675253
0.802422 1.46561
0.815843 1.96098
0.359788 2.01978
-0.533542 2.10675
-0.529608 1.6999
-0.797393 1.47289
-0.99914 0.758764
-0.947268 -0.0915875
-0.790233 -0.396236
-0.479856 -0.797507
0.108592 -1.02958

0.638385 0.513962
0.429852 0.788386
0.603711 1.13694
0.815843 1.96098
0.359788 2.01978
-0.533542 2.10675
-0.529608 1.6999
-0.797393 1.47289
-0.99914 0.758764
-0.947268 -0.0915875
-0.790233 -0.396236
-0.479856 -0.797507
0.108592 -1.02958

0.638385 0.513962
0.429852 0.788386
0.603711 1.13694
0.815843 1.96098
0.359788 2.01978
-0.533542 2.10675
-0.529608 1.6999
-0.601501 1.14119
-0.456199 0.796132
-0.677496 0.347914
-0.790233 -0.396236
-0.479856 -0.797507
0.108592 -1.02958

0.965827 0.0485694
0.710421 0.400422
0.603711 1.13694
0.815843 1.96098
0.359788 2.01978
-0.533542 2.10675
-0.529608 1.6999
-0.601501 1.14119
-0.456199 0.796132
-0.677496 0.347914
-0.790233 -0.396236
-0.479856 -0.797507
0.108592 -1.02958

0.965827 0.0485694
0.710421 0.400422
0.603711 1.13694
0.815843 1.96098
0.359788 2.01978
-0.533542 2.10675
-0.529608 1.6999
-0.601501 1.14119
-0.456199 0.796132
-0.677496 0.347914
-0.790233 -0.396236
0.0997536 -0.896982
0.643698 -1.00282

0.965827 0.0485694
0.710421 0.400422
0.603711 1.13694
0.815843 1.96098
0.359788 2.01978
-0.533542 2.10675
-0.529608 1.6999
-0.601501 1.14119
-0.624803 0.552824
-0.788252 0.304595
-0.795023 -0.0547949
0.0997536 -0.896982
0.643698 -1.00282

0.965827 0.0485694
0.710421 0.400422
0.603711 1.13694
0.815843 1.96098
0.359788 2.01978
-0.533542 2.10675
-0.529608 1.6999
-0.601501 1.14119
-0.857443 0.57592
-1.06989 0.571464
-0.944329 0.26577
0.0997536 -0.896982
0.643698 -1.00282

0.965827 0.0485694
0.710421 0.400422
0.603711 1.13694
0.661483 1.98005
0.486357 2.00192
-0.0284276 2.05458
-0.529608 1.6999
-0.601501 1.14119
-0.857443 0.57592
-1.06989 0.571464
-0.944329 0.26577
0.0997536 -0.896982
0.643698 -1.00282

0.933712 0.220025
0.881421 0.400041
0.748264 0.777404
0.661483 1.98005
0.486357 2.00192
-0.0284276 2.05458
-0.529608 1.6999
-0.601501 1.14119
-0.857443 0.57592
-1.06989 0.571464
-0.944329 0.26577
0.0997536 -0.896982
0.643698 -1.00282

0.933712 0.220025
0.881421 0.400041
0.748264 0.777404
0.661483 1.98005
0.486357 2.00192
-0.0284276 2.05458
-0.271671 1.31032
-0.0593681 0.923806
-0.439839 0.733758
-1.06989 0.571464
-0.944329 0.26577
0.0997536 -0.896982
0.643698 -1.00282

0.933712 0.220025
0.881421 0.400041
0.748264 0.777404
0.661483 1.98005
0.486357 2.00192
-0.0284276 2.05458
-0.271671 1.31032
-0.0593681 0.923806
-0.439839 0.733758
-0.987289 0.00190986
-0.904406 -0.513942
-0.386317 -0.752593
0.643698 -1.00282

0.933712 0.220025
0.881421 0.400041
0.748264 0.777404
0.661483 1.98005
0.486357 2.00192
-0.0284276 2.05458
-0.271671 1.31032
-0.0593681 0.923806
-0.439839 0.733758
-0.987289 0.00190986
-0.659595 -0.701314
-0.39863 -0.885245
0.137143 -0.952915

0.933712 0.220025
0.881421 0.400041
0.748264 0.777404
0.661483 1.98005
0.105365 2.04944
-0.272626 2.09542
-0.285396 1.69292
-0.0593681 0.923806
-0.439839 0.733758
-0.987289 0.00190986
-0.659595 -0.701314
-0.39863 -0.885245
0.137143 -0.952915

0.903422 -0.337068
0.890407 0.0130942
0.748264 0.777404
0.661483 1.98005
0.105365 2.04944
-0.272626 2.09542
-0.285396 1.69292
-0.0593681 0.923806
-0.439839 0.733758
-0.987289 0.00190986
-0.659595 -0.701314
-0.39863 -0.885245
0.137143 -0.952915

0.903422 -0.337068
0.890407 0.0130942
0.748264 0.777404
0.661483 1.98005
0.105365 2.04944
-0.478969 2.00107
-0.657628 1.87884
-0.368675 1.39513
-0.439839 0.733758
-0.987289 0.00190986
-0.659595 -0.701314
-0.39863 -0.885245
0.137143 -0.952915

0.903422 -0.337068
0.890407 0.0130942
0.773199 1.17387
0.785747 1.63911
0.44016 1.83282
-0.478969 2.00107
-0.657628 1.87884
-0.368675 1.39513
-0.439839 0.733758
-0.987289 0.00190986
-0.659595 -0.701314
-0.39863 -0.885245
0.137143 -0.952915

0.903422 -0.337068
0.890407 0.0130942
0.773199 1.17387
0.785747 1.63911
0.44016 1.83282
-0.478969 2.00107
-0.657628 1.87884
-0.368675 1.39513
-0.613123 0.380726
-0.819403 0.000197862
-0.727148 -0.363892
-0.39863 -0.885245
0.137143 -0.952915

0.903422 -0.337068
0.890407 0.0130942
0.773199 1.17387
0.785747 1.63911
0.44016 1.83282
-0.478969 2.00107
-0.657628 1.87884
-0.527806 1.01324
-0.690939 0.57713
-0.762056 0.288274
-0.727148 -0.363892
-0.39863 -0.885245
0.137143 -0.952915

0.903422 -0.337068
0.890407 0.0130942
0.773199 1.17387
0.785747 1.63911
0.44016 1.83282
-0.478969 2.00107
-0.657628 1.87884
-0.527806 1.01324
-0.690939 0.57713
-0.762056 0.288274
-0.727148 -0.363892
-0.20751 -1.03615
0.0144 -1.17406

0.903422 -0.337068
0.890407 0.0130942
0.773199 1.17387
0.785747 1.63911
0.44016 1.83282
-0.478969 2.00107
-0.657628 1.87884
-0.527806 1.01324
-0.690939 0.57713
-0.762056 0.288274
-0.618435 -0.716193
-0.469084 -1.09325
-0.231791 -1.13861

0.903422 -0.337068
0.890407 0.0130942
0.773199 1.17387
0.785747 1.63911
0.44016 1.83282
-0.478969 2.00107
-0.657628 1.87884
-0.527806 1.01324
-0.690939 0.57713
-0.780184 -0.231656
-0.780681 -0.791083
-0.627181 -0.953149
-0.231791 -1.13861

0.903422 -0.337068
0.890407 0.0130942
0.773199 1.17387
0.785747 1.63911
0.44016 1.83282
-0.478969 2.00107
-0.657628 1.87884
-0.527806 1.01324
-0.838334 0.111124
-0.976458 -0.38197
-0.885277 -0.60457
-0.627181 -0.953149
-0.231791 -1.13861

0.903422 -0.337068
0.890407 0.0130942
0.773199 1.17387
0.785747 1.63911
0.44016 1.83282
-0.478969 2.00107
-0.657628 1.87884
-0.527806 1.01324
-0.838334 0.111124
-0.844844 -0.485768
-0.719973 -0.600493
-0.661848 -0.785025
-0.231791 -1.13861

0.903422 -0.337068
0.890407 0.0130942
0.773199 1.17387
0.785747 1.63911
0.44016 1.83282
-0.478969 2.00107
-0.657628 1.87884
-0.847251 0.53172
-1.16076 0.0120569
-1.01362 -0.254917
-0.719973 -0.600493
-0.661848 -0.785025
-0.231791 -1.13861

0.903422 -0.337068
0.890407 0.0130942
0.773199 1.17387
0.785747 1.63911
0.44016 1.83282
-0.478969 2.00107
-0.820044 1.1773
-0.98332 0.414384
-1.0845 0.196091
-1.01362 -0.254917
-0.719973 -0.600493
-0.661848 -0.785025
-0.231791 -1.13861

0.903422 -0.337068
0.890407 0.0130942
0.773199 1.17387
0.785747 1.63911
0.44016 1.83282
-0.678345 1.43231
-0.891213 0.841465
-0.943864 0.59699
-1.0845 0.196091
-1.01362 -0.254917
-0.719973 -0.600493
-0.661848 -0.785025
-0.231791 -1.13861

0.903422 -0.337068
0.890407 0.0130942
0.773199 1.17387
0.785747 1.63911
-0.0042541 1.86458
-0.519725 1.84827
-0.706286 1.34183
-0.943864 0.59699
-1.0845 0.196091
-1.01362 -0.254917
-0.719973 -0.600493
-0.661848 -0.785025
-0.231791 -1.13861

0.903422 -0.337068
0.890407 0.0130942
0.773199 1.17387
0.3678 1.95095
-0.0893435 2.25154
-0.321674 2.06142
-0.706286 1.34183
-0.943864 0.59699
-1.0845 0.196091
-1.01362 -0.254917
-0.719973 -0.600493
-0.661848 -0.785025
-0.231791 -1.13861

0.903422 -0.337068
0.890407 0.0130942
0.773199 1.17387
0.3678 1.95095
-0.0893435 2.25154
-0.321674 2.06142
-0.609122 0.992419
-0.549713 0.599663
-0.80919 0.386339
-1.01362 -0.254917
-0.719973 -0.600493
-0.661848 -0.785025
-0.231791 -1.13861

0.903422 -0.337068
0.890407 0.0130942
0.597731 1.65633
0.396371 2.17193
0.140733 2.22731
-0.321674 2.06142
-0.609122 0.992419
-0.549713 0.599663
-0.80919 0.386339
-1.01362 -0.254917
-0.719973 -0.600493
-0.661848 -0.785025
-0.231791 -1.13861

0.903422 -0.337068
0.894909 0.898679
0.865723 1.87237
0.63274 2.04431
0.140733 2.22731
-0.321674 2.06142
-0.609122 0.992419
-0.549713 0.599663
-0.80919 0.386339
-1.01362 -0.254917
-0.719973 -0.600493
-0.661848 -0.785025
-0.231791 -1.13861

0.903422 -0.337068
0.894909 0.898679
0.865723 1.87237
0.63274 2.04431
0.140733 2.22731
-0.321674 2.06142
-0.609122 0.992419
-0.549713 0.599663
-0.80919 0.386339
-1.01362 -0.254917
-0.719973 -0.600493
-0.351779 -0.885739
-0.0264474 -1.01582

0.855057 0.10115
0.810896 0.634288
0.834988 1.27735
0.63274 2.04431
0.140733 2.22731
-0.321674 2.06142
-0.609122 0.992419
-0.549713 0.599663
-0.80919 0.386339
-1.01362 -0.254917
-0.719973 -0.600493
-0.351779 -0.885739
-0.0264474 -1.01582

0.717909 -0.0767671
0.759129 0.291518
0.834988 1.27735
0.63274 2.04431
0.140733 2.22731
-0.321674 2.06142
-0.609122 0.992419
-0.549713 0.599663
-0.80919 0.386339
-1.01362 -0.254917
-0.719973 -0.600493
-0.351779 -0.885739
-0.0264474 -1.01582

0.878841 -0.71596
0.82477 -0.217091
0.834988 1.27735
0.63274 2.04431
0.140733 2.22731
-0.321674 2.06142
-0.609122 0.992419
-0.549713 0.599663
-0.80919 0.386339
-1.01362 -0.254917
-0.719973 -0.600493
-0.351779 -0.885739
-0.0264474 -1.01582

0.878841 -0.71596
0.82477 -0.217091
0.834988 1.27735
0.63274 2.04431
0.140733 2.22731
-0.321674 2.06142
-0.609122 0.992419
-0.549713 0.599663
-0.80919 0.386339
-1.01362 -0.254917
-0.719973 -0.600493
-0.00210912 -0.985397
0.350148 -1.09016

0.878841 -0.71596
0.82477 -0.217091
0.834988 1.27735
0.63274 2.04431
0.140733 2.22731
-0.543752 1.66148
-0.777553 1.17559
-0.665917 0.878388
-0.80919 0.386339
-1.01362 -0.254917
-0.719973 -0.600493
-0.00210912 -0.985397
0.350148 -1.09016

0.878841 -0.71596
0.82477 -0.217091
0.834988 1.27735
0.63274 2.04431
-0.248897 2.16831
-0.681516 2.04812
-0.741612 1.604
-0.665917 0.878388
-0.80919 0.386339
-1.01362 -0.254917
-0.719973 -0.600493
-0.00210912 -0.985397
0.350148 -1.09016

0.878841 -0.71596
0.535752 0.345935
0.275564 1.033
0.432555 1.56121
-0.248897 2.16831
-0.681516 2.04812
-0.741612 1.604
-0.665917 0.878388
-0.80919 0.386339
-1.01362 -0.254917
-0.719973 -0.600493
-0.00210912 -0.985397
0.350148 -1.09016

0.878841 -0.71596
0.535752 0.345935
0.275564 1.033
0.371347 1.81
0.234297 2.10818
-0.228293 2.07208
-0.741612 1.604
-0.665917 0.878388
-0.80919 0.386339
-1.01362 -0.254917
-0.719973 -0.600493
-0.00210912 -0.985397
0.350148 -1.09016

0.842502 -0.247687
0.768185 0.305531
0.517285 0.69515
0.371347 1.81
0.234297 2.10818
-0.228293 2.07208
-0.741612 1.604
-0.665917 0.878388
-0.80919 0.386339
-1.01362 -0.254917
-0.719973 -0.600493
-0.00210912 -0.985397
0.350148 -1.09016

1.06882 -0.205775
0.920845 0.0729478
0.517285 0.69515
0.371347 1.81
0.234297 2.10818
-0.228293 2.07208
-0.741612 1.604
-0.665917 0.878388
-0.80919 0.386339
-1.01362 -0.254917
-0.719973 -0.600493
-0.00210912 -0.985397
0.350148 -1.09016

1.06882 -0.205775
0.920845 0.0729478
0.517285 0.69515
0.371347 1.81
0.234297 2.10818
-0.228293 2.07208
-0.741612 1.604
-0.665917 0.878388
-0.80919 0.386339
-1.01362 -0.254917
-0.719973 -0.600493
0.182554 -0.946179
0.393928 -0.923161

1.06882 -0.205775
0.920845 0.0729478
0.517285 0.69515
0.371347 1.81
0.234297 2.10818
-0.228293 2.07208
-0.741612 1.604
-0.665917 0.878388
-0.80919 0.386339
-0.778181 -0.504781
-0.526947 -0.77556
-0.130326 -0.879171
0.393928 -0.923161

1.06882 -0.205775
0.920845 0.0729478
0.517285 0.69515
0.371347 1.81
0.234297 2.10818
-0.535636 1.90183
-0.880487 1.68817
-0.773023 1.25432
-0.80919 0.386339
-0.778181 -0.504781
-0.526947 -0.77556
-0.130326 -0.879171
0.393928 -0.923161

1.06882 -0.205775
0.920845 0.0729478
0.517285 0.69515
0.371347 1.81
0.234297 2.10818
-0.535636 1.90183
-0.93507 1.51089
-0.971877 1.29434
-0.896336 0.803621
-0.778181 -0.504781
-0.526947 -0.77556
-0.130326 -0.879171
0.393928 -0.923161

1.06882 -0.205775
0.920845 0.0729478
0.517285 0.69515
0.371347 1.81
0.234297 2.10818
-0.535636 1.90183
-0.93507 1.51089
-1.07587 0.886634
-1.16216 0.450291
-0.970477 -0.0923147
-0.526947 -0.77556
-0.130326 -0.879171
0.393928 -0.923161

1.06882 -0.205775
0.592836 0.403781
0.239756 0.786862
0.293378 1.35042
0.234297 2.10818
-0.535636 1.90183
-0.93507 1.51089
-1.07587 0.886634
-1.16216 0.450291
-0.970477 -0.0923147
-0.526947 -0.77556
-0.130326 -0.879171
0.393928 -0.923161

1.06882 -0.205775
0.592836 0.403781
0.239756 0.786862
0.293378 1.35042
0.234297 2.10818
-0.535636 1.90183
-0.93507 1.51089
-1.07587 0.886634
-1.16216 0.450291
-0.970477 -0.0923147
-0.526947 -0.77556
0.246803 -0.843212
0.661435 -0.815518

1.06882 -0.205775
0.592836 0.403781
0.239756 0.786862
0.293378 1.35042
0.234297 2.10818
-0.535636 1.90183
-0.93507 1.51089
-1.07587 0.886634
-1.16216 0.450291
-0.970477 -0.0923147
-0.526947 -0.77556
0.542932 -0.732951
0.869774 -0.627306

1.06882 -0.205775
0.592836 0.403781
0.239756 0.786862
0.293378 1.35042
0.234297 2.10818
-0.535636 1.90183
-0.93507 1.51089
-1.07587 0.886634
-1.16216 0.450291
-0.970477 -0.0923147
-0.526947 -0.77556
0.614008 -0.582286
0.721629 -0.428959

1.1832 0.14802
0.867076 0.311738
0.239756 0.786862
0.293378 1.35042
0.234297 2.10818
-0.535636 1.90183
-0.93507 1.51089
-1.07587 0.886634
-1.16216 0.450291
-0.970477 -0.0923147
-0.526947 -0.77556
0.614008 -0.582286
0.721629 -0.428959

0.965354 0.261621
0.721519 0.388632
0.44725 0.612451
0.293378 1.35042
0.234297 2.10818
-0.535636 1.90183
-0.93507 1.51089
-1.07587 0.886634
-1.16216 0.450291
-0.970477 -0.0923147
-0.526947 -0.77556
0.614008 -0.582286
0.721629 -0.428959

0.965354 0.261621
0.621837 0.483747
0.493169 0.601612
0.386357 1.01273
0.234297 2.10818
-0.535636 1.90183
-0.93507 1.51089
-1.07587 0.886634
-1.16216 0.450291
-0.970477 -0.0923147
-0.526947 -0.77556
0.614008 -0.582286
0.721629 -0.428959

0.965354 0.261621
0.621837 0.483747
0.541153 0.735635
0.572184 0.914678
0.398555 1.56552
-0.535636 1.90183
-0.93507 1.51089
-1.07587 0.886634
-1.16216 0.450291
-0.970477 -0.0923147
-0.526947 -0.77556
0.614008 -0.582286
0.721629 -0.428959

0.908555 0.121156
0.746542 0.311707
0.541153 0.735635
0.572184 0.914678
0.398555 1.56552
-0.535636 1.90183
-0.93507 1.51089
-1.07587 0.886634
-1.16216 0.450291
-0.970477 -0.0923147
-0.526947 -0.77556
0.614008 -0.582286
0.721629 -0.428959

0.908555 0.121156
0.746542 0.311707
0.47799 0.853932
0.422659 0.988772
0.399201 1.31246
-0.535636 1.90183
-0.93507 1.51089
-1.07587 0.886634
-1.16216 0.450291
-0.970477 -0.0923147
-0.526947 -0.77556
0.614008 -0.582286
0.721629 -0.428959

0.908555 0.121156
0.746542 0.311707
0.175173 0.829844
-0.117622 0.824974
0.131575 1.08358
-0.535636 1.90183
-0.93507 1.51089
-1.07587 0.886634
-1.16216 0.450291
-0.970477 -0.0923147
-0.526947 -0.77556
0.614008 -0.582286
0.721629 -0.428959

0.908555 0.121156
0.746542 0.311707
0.00792112 0.9057
-0.189044 0.976722
-0.0162412 1.04632
-0.535636 1.90183
-0.93507 1.51089
-1.07587 0.886634
-1.16216 0.450291
-0.970477 -0.0923147
-0.526947 -0.77556
0.614008 -0.582286
0.721629 -0.428959

0.908555 0.121156
0.746542 0.311707
0.00792112 0.9057
-0.189044 0.976722
-0.0162412 1.04632
-0.535636 1.90183
-0.93507 1.51089
-1.07587 0.886634
-1.16216 0.450291
-0.970477 -0.0923147
-0.526947 -0.77556
0.741263 -0.412184
0.876152 -0.230612

0.908555 0.121156
0.746542 0.311707
0.00792112 0.9057
-0.189044 0.976722
-0.0162412 1.04632
-0.535636 1.90183
-0.93507 1.51089
-0.908939 0.670509
-0.762115 0.406759
-0.850352 0.126333
-0.526947 -0.77556
0.741263 -0.412184
0.876152 -0.230612

0.908555 0.121156
0.746542 0.311707
0.00792112 0.9057
-0.189044 0.976722
-0.0162412 1.04632
-0.535636 1.90183
-0.93507 1.51089
-0.908939 0.670509
-0.778909 0.315106
-0.806803 0.190048
-0.647987 -0.34311
0.741263 -0.412184
0.876152 -0.230612

0.908555 0.121156
0.746542 0.311707
0.00792112 0.9057
-0.189044 0.976722
-0.0162412 1.04632
-0.535636 1.90183
-0.93507 1.51089
-0.908939 0.670509
-0.778909 0.315106
-0.803793 0.0174727
-0.779357 -0.219434
0.0593376 -0.318304
0.876152 -0.230612

0.908555 0.121156
0.746542 0.311707
0.00792112 0.9057
-0.189044 0.976722
-0.0162412 1.04632
-0.535636 1.90183
-0.93507 1.51089
-0.908939 0.670509
-0.778909 0.315106
-0.803793 0.0174727
-0.523508 -0.564138
-0.1646 -0.906948
0.400915 -0.57038

0.908555 0.121156
0.746542 0.311707
0.00792112 0.9057
-0.189044 0.976722
-0.0162412 1.04632
-0.535636 1.90183
-0.93507 1.51089
-0.908939 0.670509
-0.778909 0.315106
-0.713967 -0.430998
-0.589505 -0.9402
-0.356511 -0.947963
0.400915 -0.57038

0.908555 0.121156
0.746542 0.311707
0.00792112 0.9057
-0.189044 0.976722
-0.0162412 1.04632
-0.535636 1.90183
-0.93507 1.51089
-0.949 0.375531
-0.969512 0.0434531
-0.839802 -0.241389
-0.589505 -0.9402
-0.356511 -0.947963
0.400915 -0.57038

0.908555 0.121156
0.746542 0.311707
0.00792112 0.9057
-0.189044 0.976722
-0.0162412 1.04632
-0.535636 1.90183
-0.919671 1.11092
-0.906791 0.568889
-0.938989 0.28783
-0.839802 -0.241389
-0.589505 -0.9402
-0.356511 -0.947963
0.400915 -0.57038

0.908555 0.121156
0.746542 0.311707
0.00792112 0.9057
-0.189044 0.976722
-0.0162412 1.04632
-0.535636 1.90183
-0.998701 0.974659
-1.07309 0.767806
-1.00955 0.512292
-0.839802 -0.241389
-0.589505 -0.9402
-0.356511 -0.947963
0.400915 -0.57038

0.908555 0.121156
0.746542 0.311707
0.00792112 0.9057
-0.189044 0.976722
-0.0162412 1.04632
-0.738757 1.46361
-0.999818 0.910452
-1.04112 0.82563
-1.00955 0.512292
-0.839802 -0.241389
-0.589505 -0.9402
-0.356511 -0.947963
0.400915 -0.57038

0.908555 0.121156
0.746542 0.311707
0.00792112 0.9057
-0.189044 0.976722
-0.0162412 1.04632
-0.765495 1.26121
-0.828114 0.987401
-0.93585 0.901757
-1.00955 0.512292
-0.839802 -0.241389
-0.589505 -0.9402
-0.356511 -0.947963
0.400915 -0.57038

0.908555 0.121156
0.746542 0.311707
0.00792112 0.9057
-0.189044 0.976722
-0.0162412 1.04632
-0.765495 1.26121
-0.828114 0.987401
-0.93585 0.901757
-0.918242 0.0276168
-0.805628 -0.549292
-0.681227 -0.79196
-0.356511 -0.947963
0.400915 -0.57038

0.908555 0.121156
0.746542 0.311707
0.00792112 0.9057
-0.189044 0.976722
-0.0162412 1.04632
-0.765495 1.26121
-0.828114 0.987401
-1.00724 0.379104
-1.07417 -0.253446
-0.933653 -0.440873
-0.681227 -0.79196
-0.356511 -0.947963
0.400915 -0.57038

0.908555 0.121156
0.746542 0.311707
0.00792112 0.9057
-0.189044 0.976722
-0.356448 1.19984
-0.795073 1.38018
-0.815911 1.1665
-1.00724 0.379104
-1.07417 -0.253446
-0.933653 -0.440873
-0.681227 -0.79196
-0.356511 -0.947963
0.400915 -0.57038

0.908555 0.121156
0.746542 0.311707
0.00792112 0.9057
-0.189044 0.976722
-0.356448 1.19984
-0.927177 1.30212
-1.05923 1.19519
-1.04743 0.734744
-1.07417 -0.253446
-0.933653 -0.440873
-0.681227 -0.79196
-0.356511 -0.947963
0.400915 -0.57038

0.908555 0.121156
0.746542 0.311707
0.00792112 0.9057
-0.189044 0.976722
-0.634718 1.32963
-0.989499 1.47147
-1.03362 1.32699
-1.04743 0.734744
-1.07417 -0.253446
-0.933653 -0.440873
-0.681227 -0.79196
-0.356511 -0.947963
0.400915 -0.57038

0.908555 0.121156
0.746542 0.311707
0.00792112 0.9057
-0.366396 1.33202
-0.605031 1.73184
-0.821407 1.61325
-1.03362 1.32699
-1.04743 0.734744
-1.07417 -0.253446
-0.933653 -0.440873
-0.681227 -0.79196
-0.356511 -0.947963
0.400915 -0.57038

0.908555 0.121156
0.746542 0.311707
0.00792112 0.9057
-0.510087 1.66281
-0.686172 2.0464
-0.769114 1.8229
-1.03362 1.32699
-1.04743 0.734744
-1.07417 -0.253446
-0.933653 -0.440873
-0.681227 -0.79196
-0.356511 -0.947963
0.400915 -0.57038

0.908555 0.121156
0.746542 0.311707
0.00792112 0.9057
-0.462762 1.80776
-0.441867 2.00679
-0.610436 1.89904
-1.03362 1.32699
-1.04743 0.734744
-1.07417 -0.253446
-0.933653 -0.440873
-0.681227 -0.79196
-0.356511 -0.947963
0.400915 -0.57038

0.908555 0.121156
0.746542 0.311707
0.00792112 0.9057
-0.462762 1.80776
-0.441867 2.00679
-0.610436 1.89904
-1.03362 1.32699
-1.04743 0.734744
-1.07417 -0.253446
-0.933653 -0.440873
-0.303135 -0.96703
0.118193 -1.16295
0.314712 -0.840519

0.908555 0.121156
0.746542 0.311707
0.00792112 0.9057
-0.462762 1.80776
-0.441867 2.00679
-0.610436 1.89904
-1.03362 1.32699
-1.04743 0.734744
-1.07417 -0.253446
-0.662313 -0.765943
-0.300463 -1.16559
-0.0608839 -1.17882
0.314712 -0.840519

0.908555 0.121156
0.746542 0.311707
0.00792112 0.9057
-0.435939 1.9754
-0.406213 2.17133
-0.5205 2.02766
-1.03362 1.32699
-1.04743 0.734744
-1.07417 -0.253446
-0.662313 -0.765943
-0.300463 -1.16559
-0.0608839 -1.17882
0.314712 -0.840519

0.908555 0.121156
0.746542 0.311707
0.00792112 0.9057
-0.292646 2.02855
-0.145656 2.11063
-0.341138 2.05852
-1.03362 1.32699
-1.04743 0.734744
-1.07417 -0.253446
-0.662313 -0.765943
-0.300463 -1.16559
-0.0608839 -1.17882
0.314712 -0.840519

0.908555 0.121156
0.746542 0.311707
0.00792112 0.9057
-0.0829223 2.14411
0.148221 2.27163
-0.110771 2.16132
-1.03362 1.32699
-1.04743 0.734744
-1.07417 -0.253446
-0.662313 -0.765943
-0.300463 -1.16559
-0.0608839 -1.17882
0.314712 -0.840519

0.908555 0.121156
0.746542 0.311707
0.00792112 0.9057
0.207233 2.16785
0.532007 2.21078
0.191217 2.17775
-1.03362 1.32699
-1.04743 0.734744
-1.07417 -0.253446
-0.662313 -0.765943
-0.300463 -1.16559
-0.0608839 -1.17882
0.314712 -0.840519

0.908555 0.121156
0.746542 0.311707
0.00792112 0.9057
0.373781 2.05427
0.589719 1.94699
0.364557 2.05998
-1.03362 1.32699
-1.04743 0.734744
-1.07417 -0.253446
-0.662313 -0.765943
-0.300463 -1.16559
-0.0608839 -1.17882
0.314712 -0.840519

0.908555 0.121156
0.746542 0.311707
0.00792112 0.9057
0.554159 1.94666
0.768058 1.82233
0.548838 1.94995
-1.03362 1.32699
-1.04743 0.734744
-1.07417 -0.253446
-0.662313 -0.765943
-0.300463 -1.16559
-0.0608839 -1.17882
0.314712 -0.840519

0.908555 0.121156
0.746542 0.311707
0.00792112 0.9057
0.742468 1.84248
0.964606 1.71867
0.739394 1.84438
-1.03362 1.32699
-1.04743 0.734744
-1.07417 -0.253446
-0.662313 -0.765943
-0.300463 -1.16559
-0.0608839 -1.17882
0.314712 -0.840519

0.908555 0.121156
0.746542 0.311707
0.299656 1.19837
0.70651 1.63717
0.853065 1.66864
0.739394 1.84438
-1.03362 1.32699
-1.04743 0.734744
-1.07417 -0.253446
-0.662313 -0.765943
-0.300463 -1.16559
-0.0608839 -1.17882
0.314712 -0.840519

0.947026 0.280536
0.960967 0.471003
0.59429 0.904567
0.70651 1.63717
0.853065 1.66864
0.739394 1.84438
-1.03362 1.32699
-1.04743 0.734744
-1.07417 -0.253446
-0.662313 -0.765943
-0.300463 -1.16559
-0.0608839 -1.17882
0.314712 -0.840519

0.927281 0.456654
0.909432 0.664574
0.722647 0.818676
0.70651 1.63717
0.853065 1.66864
0.739394 1.84438
-1.03362 1.32699
-1.04743 0.734744
-1.07417 -0.253446
-0.662313 -0.765943
-0.300463 -1.16559
-0.0608839 -1.17882
0.314712 -0.840519

0.927281 0.456654
0.909432 0.664574
0.722647 0.818676
0.70651 1.63717
0.853065 1.66864
0.739394 1.84438
-1.03362 1.32699
-1.04743 0.734744
-1.07417 -0.253446
-0.662313 -0.765943
-0.300463 -1.16559
0.383659 -0.894371
0.893506 -0.552917

0.927281 0.456654
0.909432 0.664574
0.722647 0.818676
0.70651 1.63717
0.853065 1.66864
0.739394 1.84438
-0.852282 1.1066
-0.669843 0.789813
-0.875875 0.187102
-0.662313 -0.765943
-0.300463 -1.16559
0.383659 -0.894371
0.893506 -0.552917

0.927281 0.456654
0.909432 0.664574
0.722647 0.818676
0.70651 1.63717
0.853065 1.66864
0.739394 1.84438
-0.852282 1.1066
-0.669843 0.789813
-0.875875 0.187102
-0.662313 -0.765943
-0.0498522 -1.05474
0.313118 -0.899117
0.645799 -0.697776

0.927281 0.456654
0.909432 0.664574
0.722647 0.818676
0.70651 1.63717
0.853065 1.66864
0.739394 1.84438
-0.497282 1.10385
-0.1055 1.05115
-0.511048 0.56735
-0.662313 -0.765943
-0.0498522 -1.05474
0.313118 -0.899117
0.645799 -0.697776

0.927281 0.456654
0.909432 0.664574
0.722647 0.818676
0.70651 1.63717
0.853065 1.66864
0.739394 1.84438
-0.497282 1.10385
-0.1055 1.05115
-0.511048 0.56735
-0.662313 -0.765943
-0.0498522 -1.05474
0.432373 -0.816345
0.607245 -0.699648

0.927281 0.456654
0.909432 0.664574
0.722647 0.818676
0.70651 1.63717
0.853065 1.66864
0.739394 1.84438
-0.497282 1.10385
-0.435108 0.698038
-0.838195 0.258372
-0.76092 -0.36521
-0.0498522 -1.05474
0.432373 -0.816345
0.607245 -0.699648

0.988394 0.325002
0.94693 0.51363
0.722647 0.818676
0.70651 1.63717
0.853065 1.66864
0.739394 1.84438
-0.497282 1.10385
-0.435108 0.698038
-0.838195 0.258372
-0.76092 -0.36521
-0.0498522 -1.05474
0.432373 -0.816345
0.607245 -0.699648

0.988394 0.325002
0.94693 0.51363
0.722647 0.818676
0.70651 1.63717
0.624541 1.8882
0.370435 2.14299
-0.167848 1.55678
-0.435108 0.698038
-0.838195 0.258372
-0.76092 -0.36521
-0.0498522 -1.05474
0.432373 -0.816345
0.607245 -0.699648

0.988394 0.325002
0.94693 0.51363
0.722647 0.818676
0.70651 1.63717
0.624541 1.8882
0.370435 2.14299
-0.263579 1.20347
-0.405652 0.699684
-0.6575 0.440483
-0.76092 -0.36521
-0.0498522 -1.05474
0.432373 -0.816345
0.607245 -0.699648

0.988394 0.325002
0.94693 0.51363
0.722647 0.818676
0.70651 1.63717
0.624541 1.8882
0.370435 2.14299
-0.278567 1.07859
-0.317084 0.867609
-0.510378 0.629588
-0.76092 -0.36521
-0.0498522 -1.05474
0.432373 -0.816345
0.607245 -0.699648

0.988394 0.325002
0.94693 0.51363
0.722647 0.818676
0.70651 1.63717
0.624541 1.8882
-0.11026 1.96106
-0.715319 1.59908
-0.515416 1.20947
-0.510378 0.629588
-0.76092 -0.36521
-0.0498522 -1.05474
0.432373 -0.816345
0.607245 -0.699648

1.0818 0.0530078
1.00967 0.303111
0.722647 0.818676
0.70651 1.63717
0.624541 1.8882
-0.11026 1.96106
-0.715319 1.59908
-0.515416 1.20947
-0.510378 0.629588
-0.76092 -0.36521
-0.0498522 -1.05474
0.432373 -0.816345
0.607245 -0.699648

1.0818 0.0530078
1.00967 0.303111
0.722647 0.818676
0.70651 1.63717
0.624541 1.8882
-0.11026 1.96106
-0.715319 1.59908
-0.515416 1.20947
-0.510378 0.629588
-0.76092 -0.36521
0.175056 -1.03235
0.488923 -0.969917
0.563378 -0.822502

1.0818 0.0530078
1.00967 0.303111
0.722647 0.818676
0.70651 1.63717
0.624541 1.8882
-0.11026 1.96106
-0.913166 1.35454
-1.08739 1.03446
-0.791882 0.780791
-0.76092 -0.36521
0.175056 -1.03235
0.488923 -0.969917
0.563378 -0.822502

1.0818 0.0530078
1.00967 0.303111
0.722647 0.818676
0.663121 1.74424
0.604054 1.89805
0.179078 1.93618
-0.913166 1.35454
-1.08739 1.03446
-0.791882 0.780791
-0.76092 -0.36521
0.175056 -1.03235
0.488923 -0.969917
0.563378 -0.822502

1.0818 0.0530078
1.00967 0.303111
0.722647 0.818676
0.663121 1.74424
0.604054 1.89805
0.179078 1.93618
-0.913166 1.35454
-1.08739 1.03446
-0.835836 0.341409
-0.876927 -0.310818
-0.261995 -0.734623
0.488923 -0.969917
0.563378 -0.822502

1.0818 0.0530078
0.924604 0.504702
0.787113 0.803111
0.718654 1.36116
0.604054 1.89805
0.179078 1.93618
-0.913166 1.35454
-1.08739 1.03446
-0.835836 0.341409
-0.876927 -0.310818
-0.261995 -0.734623
0.488923 -0.969917
0.563378 -0.822502

1.0818 0.0530078
0.924604 0.504702
0.873306 1.12575
0.952931 1.56004
0.764363 1.77738
0.179078 1.93618
-0.913166 1.35454
-1.08739 1.03446
-0.835836 0.341409
-0.876927 -0.310818
-0.261995 -0.734623
0.488923 -0.969917
0.563378 -0.822502

1.0818 0.0530078
0.924604 0.504702
0.873306 1.12575
0.952931 1.56004
0.764363 1.77738
0.179078 1.93618
-0.948251 1.25169
-1.01468 1.08899
-0.902166 0.647913
-0.876927 -0.310818
-0.261995 -0.734623
0.488923 -0.969917
0.563378 -0.822502

0.927852 0.313883
0.737891 0.667053
0.803427 0.954083
0.952931 1.56004
0.764363 1.77738
0.179078 1.93618
-0.948251 1.25169
-1.01468 1.08899
-0.902166 0.647913
-0.876927 -0.310818
-0.261995 -0.734623
0.488923 -0.969917
0.563378 -0.822502

0.927852 0.313883
0.737891 0.667053
0.803427 0.954083
0.952931 1.56004
0.764363 1.77738
0.179078 1.93618
-0.948251 1.25169
-1.01468 1.08899
-0.902166 0.647913
-0.805735 -0.507656
-0.625802 -0.788925
0.0105217 -0.901546
0.563378 -0.822502

0.927852 0.313883
0.737891 0.667053
0.803427 0.954083
0.952931 1.56004
0.764363 1.77738
0.179078 1.93618
-0.948251 1.25169
-1.01468 1.08899
-0.941451 0.347587
-0.966955 -0.169342
-0.776062 -0.512286
0.0105217 -0.901546
0.563378 -0.822502

0.927852 0.313883
0.737891 0.667053
0.803427 0.954083
0.952931 1.56004
0.498139 1.94673
0.113507 2.15494
-0.528195 1.6317
-1.01468 1.08899
-0.941451 0.347587
-0.966955 -0.169342
-0.776062 -0.512286
0.0105217 -0.901546
0.563378 -0.822502

0.927852 0.313883
0.737891 0.667053
0.803427 0.954083
0.952931 1.56004
0.498139 1.94673
0.113507 2.15494
-0.528195 1.6317
-1.01468 1.08899
-0.941451 0.347587
-0.966955 -0.169342
-0.776062 -0.512286
0.286238 -0.78096
0.676569 -0.638159

0.927852 0.313883
0.737891 0.667053
0.803427 0.954083
0.952931 1.56004
0.498139 1.94673
0.113507 2.15494
-0.528195 1.6317
-1.01468 1.08899
-0.941451 0.347587
-0.966955 -0.169342
-0.386554 -0.74682
0.21485 -1.04506
0.486389 -0.822462

0.927852 0.313883
0.737891 0.667053
0.803427 0.954083
0.952931 1.56004
0.498139 1.94673
0.113507 2.15494
-0.528195 1.6317
-1.01468 1.08899
-0.941451 0.347587
-0.966955 -0.169342
-0.312262 -0.92729
-0.128272 -1.17321
0.213048 -0.972809

0.927852 0.313883
0.737891 0.667053
0.803427 0.954083
0.952931 1.56004
0.498139 1.94673
-0.170042 2.13311
-0.587535 2.0187
-0.849886 1.49077
-0.941451 0.347587
-0.966955 -0.169342
-0.312262 -0.92729
-0.128272 -1.17321
0.213048 -0.972809

0.927852 0.313883
0.737891 0.667053
0.803427 0.954083
0.892283 1.73452
0.747386 1.99072
0.21465 2.08032
-0.587535 2.0187
-0.849886 1.49077
-0.941451 0.347587
-0.966955 -0.169342
-0.312262 -0.92729
-0.128272 -1.17321
0.213048 -0.972809

0.927852 0.313883
0.737891 0.667053
0.803427 0.954083
0.892283 1.73452
0.747386 1.99072
0.21465 2.08032
-0.671616 1.81343
-0.80873 1.49838
-0.885473 0.803646
-0.966955 -0.169342
-0.312262 -0.92729
-0.128272 -1.17321
0.213048 -0.972809

0.927852 0.313883
0.737891 0.667053
0.803427 0.954083
0.892283 1.73452
0.747386 1.99072
0.21465 2.08032
-0.671616 1.81343
-0.80873 1.49838
-0.970193 0.565258
-1.07662 0.135107
-0.623351 -0.482108
-0.128272 -1.17321
0.213048 -0.972809

0.927852 0.313883
0.737891 0.667053
0.803427 0.954083
0.892283 1.73452
0.747386 1.99072
0.21465 2.08032
-0.671616 1.81343
-0.80873 1.49838
-0.970193 0.565258
-0.967611 -0.0757709
-0.768839 -0.414484
-0.39299 -0.8685
0.213048 -0.972809

0.720271 0.505052
0.45984 0.776455
0.644777 0.893489
0.892283 1.73452
0.747386 1.99072
0.21465 2.08032
-0.671616 1.81343
-0.80873 1.49838
-0.970193 0.565258
-0.967611 -0.0757709
-0.768839 -0.414484
-0.39299 -0.8685
0.213048 -0.972809

0.720271 0.505052
0.45984 0.776455
0.644777 0.893489
0.892283 1.73452
0.747386 1.99072
0.21465 2.08032
-0.671616 1.81343
-0.648333 1.22432
-0.50138 0.758263
-0.744864 0.267906
-0.768839 -0.414484
-0.39299 -0.8685
0.213048 -0.972809

0.950068 0.0901517
0.671367 0.472396
0.644777 0.893489
0.892283 1.73452
0.747386 1.99072
0.21465 2.08032
-0.671616 1.81343
-0.648333 1.22432
-0.50138 0.758263
-0.744864 0.267906
-0.768839 -0.414484
-0.39299 -0.8685
0.213048 -0.972809

0.950068 0.0901517
0.671367 0.472396
0.644777 0.893489
0.892283 1.73452
0.747386 1.99072
0.21465 2.08032
-0.671616 1.81343
-0.648333 1.22432
-0.50138 0.758263
-0.744864 0.267906
-0.768839 -0.414484
0.0341194 -0.919887
0.612738 -0.995127

0.950068 0.0901517
0.671367 0.472396
0.644777 0.893489
0.892283 1.73452
0.747386 1.99072
0.21465 2.08032
-0.671616 1.81343
-0.648333 1.22432
-0.617825 0.579566
-0.790081 0.294226
-0.78099 -0.135875
0.0341194 -0.919887
0.612738 -0.995127

0.950068 0.0901517
0.671367 0.472396
0.644777 0.893489
0.892283 1.73452
0.747386 1.99072
0.21465 2.08032
-0.671616 1.81343
-0.648333 1.22432
-0.805447 0.587517
-1.04403 0.544777
-0.905122 0.150466
0.0341194 -0.919887
0.612738 -0.995127

0.950068 0.0901517
0.671367 0.472396
0.644777 0.893489
0.739964 1.8376
0.544851 1.99832
0.325448 2.04913
-0.671616 1.81343
-0.648333 1.22432
-0.805447 0.587517
-1.04403 0.544777
-0.905122 0.150466
0.0341194 -0.919887
0.612738 -0.995127

0.930669 0.210206
0.858389 0.413176
0.743666 0.702281
0.739964 1.8376
0.544851 1.99832
0.325448 2.04913
-0.671616 1.81343
-0.648333 1.22432
-0.805447 0.587517
-1.04403 0.544777
-0.905122 0.150466
0.0341194 -0.919887
0.612738 -0.995127

0.930669 0.210206
0.858389 0.413176
0.743666 0.702281
0.739964 1.8376
0.544851 1.99832
0.325448 2.04913
-0.411946 1.46027
-0.11845 0.959253
-0.494033 0.708334
-1.04403 0.544777
-0.905122 0.150466
0.0341194 -0.919887
0.612738 -0.995127

0.930669 0.210206
0.858389 0.413176
0.743666 0.702281
0.739964 1.8376
0.544851 1.99832
0.325448 2.04913
-0.411946 1.46027
-0.11845 0.959253
-0.494033 0.708334
-0.988461 0.103113
-0.900939 -0.462365
-0.326271 -0.796472
0.612738 -0.995127

0.930669 0.210206
0.858389 0.413176
0.743666 0.702281
0.739964 1.8376
0.544851 1.99832
0.325448 2.04913
-0.411946 1.46027
-0.11845 0.959253
-0.494033 0.708334
-0.988461 0.103113
-0.708087 -0.630846
-0.386427 -0.88094
0.222853 -0.958505

0.930669 0.210206
0.858389 0.413176
0.743666 0.702281
0.739964 1.8376
0.220297 2.03738
-0.184417 2.0906
-0.368942 1.70602
-0.11845 0.959253
-0.494033 0.708334
-0.988461 0.103113
-0.708087 -0.630846
-0.386427 -0.88094
0.222853 -0.958505

0.905689 -0.286807
0.87434 0.101462
0.743666 0.702281
0.739964 1.8376
0.220297 2.03738
-0.184417 2.0906
-0.368942 1.70602
-0.11845 0.959253
-0.494033 0.708334
-0.988461 0.103113
-0.708087 -0.630846
-0.386427 -0.88094
0.222853 -0.958505

0.905689 -0.286807
0.87434 0.101462
0.743666 0.702281
0.739964 1.8376
0.220297 2.03738
-0.381629 2.01769
-0.638357 1.86388
-0.340895 1.31909
-0.494033 0.708334
-0.988461 0.103113
-0.708087 -0.630846
-0.386427 -0.88094
0.222853 -0.958505

0.905689 -0.286807
0.87434 0.101462
0.765167 1.04492
0.788779 1.64441
0.441557 1.87044
-0.381629 2.01769
-0.638357 1.86388
-0.340895 1.31909
-0.494033 0.708334
-0.988461 0.103113
-0.708087 -0.630846
-0.386427 -0.88094
0.222853 -0.958505

0.905689 -0.286807
0.87434 0.101462
0.765167 1.04492
0.788779 1.64441
0.441557 1.87044
-0.381629 2.01769
-0.638357 1.86388
-0.340895 1.31909
-0.610561 0.438564
-0.835355 0.019344
-0.743092 -0.390587
-0.386427 -0.88094
0.222853 -0.958505

0.905689 -0.286807
0.87434 0.101462
0.765167 1.04492
0.788779 1.64441
0.441557 1.87044
-0.381629 2.01769
-0.638357 1.86388
-0.477364 1.04582
-0.683159 0.569602
-0.783917 0.240009
-0.743092 -0.390587
-0.386427 -0.88094
0.222853 -0.958505

0.905689 -0.286807
0.87434 0.101462
0.765167 1.04492
0.788779 1.64441
0.441557 1.87044
-0.381629 2.01769
-0.638357 1.86388
-0.477364 1.04582
-0.683159 0.569602
-0.783917 0.240009
-0.743092 -0.390587
-0.239893 -1.00193
0.0421192 -1.15436

0.905689 -0.286807
0.87434 0.101462
0.765167 1.04492
0.788779 1.64441
0.441557 1.87044
-0.381629 2.01769
-0.638357 1.86388
-0.477364 1.04582
-0.683159 0.569602
-0.783917 0.240009
-0.651112 -0.659012
-0.450658 -1.0814
-0.163006 -1.13379

0.905689 -0.286807
0.87434 0.101462
0.765167 1.04492
0.788779 1.64441
0.441557 1.87044
-0.381629 2.01769
-0.638357 1.86388
-0.477364 1.04582
-0.683159 0.569602
-0.789989 -0.152649
-0.771652 -0.773156
-0.582553 -0.975154
-0.163006 -1.13379

0.905689 -0.286807
0.87434 0.101462
0.765167 1.04492
0.788779 1.64441
0.441557 1.87044
-0.381629 2.01769
-0.638357 1.86388
-0.477364 1.04582
-0.802522 0.204326
-0.959867 -0.352731
-0.857677 -0.632578
-0.582553 -0.975154
-0.163006 -1.13379

0.905689 -0.286807
0.87434 0.101462
0.765167 1.04492
0.788779 1.64441
0.441557 1.87044
-0.381629 2.01769
-0.638357 1.86388
-0.477364 1.04582
-0.802522 0.204326
-0.862182 -0.44568
-0.730242 -0.606248
-0.626701 -0.834132
-0.163006 -1.13379

0.905689 -0.286807
0.87434 0.101462
0.765167 1.04492
0.788779 1.64441
0.441557 1.87044
-0.381629 2.01769
-0.638357 1.86388
-0.74841 0.653553
-1.12349 0.0393327
-0.988891 -0.278515
-0.730242 -0.606248
-0.626701 -0.834132
-0.163006 -1.13379

0.905689 -0.286807
0.87434 0.101462
0.765167 1.04492
0.788779 1.64441
0.441557 1.87044
-0.381629 2.01769
-0.773704 1.31602
-0.951393 0.448986
-1.07727 0.174315
-0.988891 -0.278515
-0.730242 -0.606248
-0.626701 -0.834132
-0.163006 -1.13379

0.905689 -0.286807
0.87434 0.101462
0.765167 1.04492
0.788779 1.64441
0.441557 1.87044
-0.381629 2.01769
-0.820867 1.12332
-0.909965 0.731938
-1.01107 0.407966
-0.988891 -0.278515
-0.730242 -0.606248
-0.626701 -0.834132
-0.163006 -1.13379

0.905689 -0.286807
0.87434 0.101462
0.765167 1.04492
0.788779 1.64441
0.090724 1.88146
-0.476965 1.9229
-0.701309 1.41272
-0.909965 0.731938
-1.01107 0.407966
-0.988891 -0.278515
-0.730242 -0.606248
-0.626701 -0.834132
-0.163006 -1.13379

0.905689 -0.286807
0.87434 0.101462
0.765167 1.04492
0.458343 1.88815
-0.0627516 2.21826
-0.336815 2.0631
-0.701309 1.41272
-0.909965 0.731938
-1.01107 0.407966
-0.988891 -0.278515
-0.730242 -0.606248
-0.626701 -0.834132
-0.163006 -1.13379

0.905689 -0.286807
0.87434 0.101462
0.765167 1.04492
0.458343 1.88815
-0.0627516 2.21826
-0.336815 2.0631
-0.626631 1.11123
-0.580353 0.62586
-0.821483 0.479203
-0.988891 -0.278515
-0.730242 -0.606248
-0.626701 -0.834132
-0.163006 -1.13379

0.905689 -0.286807
0.87434 0.101462
0.630004 1.47246
0.411476 2.13866
0.108532 2.2115
-0.336815 2.0631
-0.626631 1.11123
-0.580353 0.62586
-0.821483 0.479203
-0.988891 -0.278515
-0.730242 -0.606248
-0.626701 -0.834132
-0.163006 -1.13379

0.905689 -0.286807
0.883816 0.765696
0.846703 1.8156
0.591897 2.05052
0.108532 2.2115
-0.336815 2.0631
-0.626631 1.11123
-0.580353 0.62586
-0.821483 0.479203
-0.988891 -0.278515
-0.730242 -0.606248
-0.626701 -0.834132
-0.163006 -1.13379

0.905689 -0.286807
0.883816 0.765696
0.846703 1.8156
0.591897 2.05052
0.108532 2.2115
-0.336815 2.0631
-0.626631 1.11123
-0.580353 0.62586
-0.821483 0.479203
-0.988891 -0.278515
-0.730242 -0.606248
-0.395764 -0.895254
-0.0322915 -1.0265

0.86683 0.0392498
0.816663 0.63294
0.829531 1.36866
0.591897 2.05052
0.108532 2.2115
-0.336815 2.0631
-0.626631 1.11123
-0.580353 0.62586
-0.821483 0.479203
-0.988891 -0.278515
-0.730242 -0.606248
-0.395764 -0.895254
-0.0322915 -1.0265

0.733283 -0.0722197
0.773865 0.364059
0.829531 1.36866
0.591897 2.05052
0.108532 2.2115
-0.336815 2.0631
-0.626631 1.11123
-0.580353 0.62586
-0.821483 0.479203
-0.988891 -0.278515
-0.730242 -0.606248
-0.395764 -0.895254
-0.0322915 -1.0265

0.866623 -0.654298
0.820034 -0.0620241
0.829531 1.36866
0.591897 2.05052
0.108532 2.2115
-0.336815 2.0631
-0.626631 1.11123
-0.580353 0.62586
-0.821483 0.479203
-0.988891 -0.278515
-0.730242 -0.606248
-0.395764 -0.895254
-0.0322915 -1.0265

0.866623 -0.654298
0.820034 -0.0620241
0.829531 1.36866
0.591897 2.05052
0.108532 2.2115
-0.336815 2.0631
-0.626631 1.11123
-0.580353 0.62586
-0.821483 0.479203
-0.988891 -0.278515
-0.730242 -0.606248
-0.105142 -0.97003
0.313153 -1.08523

0.866623 -0.654298
0.820034 -0.0620241
0.829531 1.36866
0.591897 2.05052
0.108532 2.2115
-0.505595 1.7486
-0.765049 1.1821
-0.66039 0.835071
-0.821483 0.479203
-0.988891 -0.278515
-0.730242 -0.606248
-0.105142 -0.97003
0.313153 -1.08523

0.866623 -0.654298
0.820034 -0.0620241
0.829531 1.36866
0.591897 2.05052
-0.185426 2.17096
-0.660672 2.02891
-0.741399 1.51582
-0.66039 0.835071
-0.821483 0.479203
-0.988891 -0.278515
-0.730242 -0.606248
-0.105142 -0.97003
0.313153 -1.08523

0.866623 -0.654298
0.595117 0.323224
0.327795 1.07484
0.449737 1.66944
-0.185426 2.17096
-0.660672 2.02891
-0.741399 1.51582
-0.66039 0.835071
-0.821483 0.479203
-0.988891 -0.278515
-0.730242 -0.606248
-0.105142 -0.97003
0.313153 -1.08523

0.866623 -0.654298
0.595117 0.323224
0.317735 1.44587
0.330501 2.0123
-0.00973602 2.14528
-0.660672 2.02891
-0.741399 1.51582
-0.66039 0.835071
-0.821483 0.479203
-0.988891 -0.278515
-0.730242 -0.606248
-0.105142 -0.97003
0.313153 -1.08523

0.842565 -0.309692
0.758122 0.304747
0.491886 1.03209
0.330501 2.0123
-0.00973602 2.14528
-0.660672 2.02891
-0.741399 1.51582
-0.66039 0.835071
-0.821483 0.479203
-0.988891 -0.278515
-0.730242 -0.606248
-0.105142 -0.97003
0.313153 -1.08523

1.0472 -0.222498
0.881297 0.122892
0.491886 1.03209
0.330501 2.0123
-0.00973602 2.14528
-0.660672 2.02891
-0.741399 1.51582
-0.66039 0.835071
-0.821483 0.479203
-0.988891 -0.278515
-0.730242 -0.606248
-0.105142 -0.97003
0.313153 -1.08523

1.0472 -0.222498
0.881297 0.122892
0.491886 1.03209
0.330501 2.0123
-0.00973602 2.14528
-0.660672 2.02891
-0.741399 1.51582
-0.66039 0.835071
-0.821483 0.479203
-0.988891 -0.278515
-0.730242 -0.606248
0.0764416 -0.944856
0.382127 -0.938121

1.0472 -0.222498
0.881297 0.122892
0.491886 1.03209
0.330501 2.0123
-0.00973602 2.14528
-0.660672 2.02891
-0.741399 1.51582
-0.66039 0.835071
-0.821483 0.479203
-0.813549 -0.465546
-0.547545 -0.75999
-0.1303 -0.892903
0.382127 -0.938121

1.0472 -0.222498
0.881297 0.122892
0.491886 1.03209
0.330501 2.0123
-0.00973602 2.14528
-0.746311 1.91122
-0.867138 1.66184
-0.746131 1.14457
-0.821483 0.479203
-0.813549 -0.465546
-0.547545 -0.75999
-0.1303 -0.892903
0.382127 -0.938121

1.0472 -0.222498
0.881297 0.122892
0.491886 1.03209
0.330501 2.0123
-0.00973602 2.14528
-0.746311 1.91122
-0.914572 1.53266
-0.947221 1.26769
-0.885216 0.77224
-0.813549 -0.465546
-0.547545 -0.75999
-0.1303 -0.892903
0.382127 -0.938121

1.0472 -0.222498
0.881297 0.122892
0.491886 1.03209
0.330501 2.0123
-0.00973602 2.14528
-0.746311 1.91122
-0.914572 1.53266
-1.03726 0.95862
-1.13434 0.477649
-0.951202 -0.157242
-0.547545 -0.75999
-0.1303 -0.892903
0.382127 -0.938121

1.0472 -0.222498
0.639179 0.363521
0.261092 0.848576
0.284124 1.58147
-0.00973602 2.14528
-0.746311 1.91122
-0.914572 1.53266
-1.03726 0.95862
-1.13434 0.477649
-0.951202 -0.157242
-0.547545 -0.75999
-0.1303 -0.892903
0.382127 -0.938121

1.0472 -0.222498
0.639179 0.363521
0.261092 0.848576
0.284124 1.58147
-0.00973602 2.14528
-0.746311 1.91122
-0.914572 1.53266
-1.03726 0.95862
-1.13434 0.477649
-0.951202 -0.157242
-0.547545 -0.75999
0.164092 -0.859963
0.633247 -0.829005

1.0472 -0.222498
0.639179 0.363521
0.261092 0.848576
0.284124 1.58147
-0.00973602 2.14528
-0.746311 1.91122
-0.914572 1.53266
-1.03726 0.95862
-1.13434 0.477649
-0.951202 -0.157242
-0.547545 -0.75999
0.424414 -0.768003
0.843795 -0.648251

1.0472 -0.222498
0.639179 0.363521
0.261092 0.848576
0.284124 1.58147
-0.00973602 2.14528
-0.746311 1.91122
-0.914572 1.53266
-1.03726 0.95862
-1.13434 0.477649
-0.951202 -0.157242
-0.547545 -0.75999
0.521676 -0.638125
0.730398 -0.45248

1.16759 0.110388
0.836649 0.305944
0.261092 0.848576
0.284124 1.58147
-0.00973602 2.14528
-0.746311 1.91122
-0.914572 1.53266
-1.03726 0.95862
-1.13434 0.477649
-0.951202 -0.157242
-0.547545 -0.75999
0.521676 -0.638125
0.730398 -0.45248

1.00333 0.212127
0.729079 0.379985
0.415277 0.690995
0.284124 1.58147
-0.00973602 2.14528
-0.746311 1.91122
-0.914572 1.53266
-1.03726 0.95862
-1.13434 0.477649
-0.951202 -0.157242
-0.547545 -0.75999
0.521676 -0.638125
0.730398 -0.45248

1.00333 0.212127
0.648792 0.457095
0.481912 0.619427
0.359783 1.23749
-0.00973602 2.14528
-0.746311 1.91122
-0.914572 1.53266
-1.03726 0.95862
-1.13434 0.477649
-0.951202 -0.157242
-0.547545 -0.75999
0.521676 -0.638125
0.730398 -0.45248

1.00333 0.212127
0.631732 0.611961
0.574705 0.839901
0.443778 1.11948
-0.00973602 2.14528
-0.746311 1.91122
-0.914572 1.53266
-1.03726 0.95862
-1.13434 0.477649
-0.951202 -0.157242
-0.547545 -0.75999
0.521676 -0.638125
0.730398 -0.45248

0.922206 0.124096
0.725315 0.433366
0.574705 0.839901
0.443778 1.11948
-0.00973602 2.14528
-0.746311 1.91122
-0.914572 1.53266
-1.03726 0.95862
-1.13434 0.477649
-0.951202 -0.157242
-0.547545 -0.75999
0.521676 -0.638125
0.730398 -0.45248

0.922206 0.124096
0.725315 0.433366
0.513903 0.89562
0.409438 1.02576
0.132864 1.74669
-0.746311 1.91122
-0.914572 1.53266
-1.03726 0.95862
-1.13434 0.477649
-0.951202 -0.157242
-0.547545 -0.75999
0.521676 -0.638125
0.730398 -0.45248

0.922206 0.124096
0.725315 0.433366
0.266026 0.86242
-0.0681785 0.848832
0.017289 1.41799
-0.746311 1.91122
-0.914572 1.53266
-1.03726 0.95862
-1.13434 0.477649
-0.951202 -0.157242
-0.547545 -0.75999
0.521676 -0.638125
0.730398 -0.45248

0.922206 0.124096
0.725315 0.433366
0.104595 0.910077
-0.171395 0.967197
-0.0579796 1.2732
-0.746311 1.91122
-0.914572 1.53266
-1.03726 0.95862
-1.13434 0.477649
-0.951202 -0.157242
-0.547545 -0.75999
0.521676 -0.638125
0.730398 -0.45248

0.922206 0.124096
0.725315 0.433366
0.104595 0.910077
-0.171395 0.967197
-0.0579796 1.2732
-0.746311 1.91122
-0.914572 1.53266
-1.03726 0.95862
-1.13434 0.477649
-0.951202 -0.157242
-0.547545 -0.75999
0.652418 -0.486716
0.863078 -0.254965

0.922206 0.124096
0.725315 0.433366
0.104595 0.910077
-0.171395 0.967197
-0.0579796 1.2732
-0.746311 1.91122
-0.914572 1.53266
-0.920983 0.766025
-0.794859 0.416959
-0.864595 0.0348782
-0.547545 -0.75999
0.652418 -0.486716
0.863078 -0.254965

0.922206 0.124096
0.725315 0.433366
0.104595 0.910077
-0.171395 0.967197
-0.0579796 1.2732
-0.746311 1.91122
-0.914572 1.53266
-0.920983 0.766025
-0.796627 0.342334
-0.814153 0.163822
-0.634378 -0.429796
0.652418 -0.486716
0.863078 -0.254965

0.922206 0.124096
0.725315 0.433366
0.104595 0.910077
-0.171395 0.967197
-0.0579796 1.2732
-0.746311 1.91122
-0.914572 1.53266
-0.920983 0.766025
-0.796627 0.342334
-0.809296 0.0389793
-0.763596 -0.250509
0.154033 -0.388332
0.863078 -0.254965

0.922206 0.124096
0.725315 0.433366
0.104595 0.910077
-0.171395 0.967197
-0.0579796 1.2732
-0.746311 1.91122
-0.914572 1.53266
-0.920983 0.766025
-0.796627 0.342334
-0.809296 0.0389793
-0.570661 -0.507081
-0.121936 -0.865127
0.499156 -0.510012

0.922206 0.124096
0.725315 0.433366
0.104595 0.910077
-0.171395 0.967197
-0.0579796 1.2732
-0.746311 1.91122
-0.914572 1.53266
-0.920983 0.766025
-0.796627 0.342334
-0.737818 -0.315848
-0.59351 -0.890966
-0.285202 -0.911188
0.499156 -0.510012

0.922206 0.124096
0.725315 0.433366
0.104595 0.910077
-0.171395 0.967197
-0.0579796 1.2732
-0.746311 1.91122
-0.914572 1.53266
-0.947904 0.505038
-0.954872 0.075964
-0.827144 -0.208238
-0.59351 -0.890966
-0.285202 -0.911188
0.499156 -0.510012

0.922206 0.124096
0.725315 0.433366
0.104595 0.910077
-0.171395 0.967197
-0.0579796 1.2732
-0.746311 1.91122
-0.909619 1.21566
-0.910663 0.578862
-0.936221 0.254078
-0.827144 -0.208238
-0.59351 -0.890966
-0.285202 -0.911188
0.499156 -0.510012

0.922206 0.124096
0.725315 0.433366
0.104595 0.910077
-0.171395 0.967197
-0.0579796 1.2732
-0.746311 1.91122
-0.974173 1.07472
-1.05772 0.75062
-0.991755 0.439188
-0.827144 -0.208238
-0.59351 -0.890966
-0.285202 -0.911188
0.499156 -0.510012

0.922206 0.124096
0.725315 0.433366
0.104595 0.910077
-0.171395 0.967197
-0.0579796 1.2732
-0.746311 1.91122
-0.982909 1.01562
-1.01293 0.866539
-0.994544 0.595065
-0.827144 -0.208238
-0.59351 -0.890966
-0.285202 -0.911188
0.499156 -0.510012

0.922206 0.124096
0.725315 0.433366
0.104595 0.910077
-0.171395 0.967197
-0.0579796 1.2732
-0.764429 1.60372
-0.8411 1.00351
-0.941076 0.911576
-0.994544 0.595065
-0.827144 -0.208238
-0.59351 -0.890966
-0.285202 -0.911188
0.499156 -0.510012

0.922206 0.124096
0.725315 0.433366
0.104595 0.910077
-0.171395 0.967197
-0.0579796 1.2732
-0.764429 1.60372
-0.8411 1.00351
-0.941076 0.911576
-0.994544 0.595065
-0.818006 -0.340121
-0.753457 -0.665584
-0.458505 -0.806429
0.499156 -0.510012

0.922206 0.124096
0.725315 0.433366
0.104595 0.910077
-0.171395 0.967197
-0.0579796 1.2732
-0.764429 1.60372
-0.8411 1.00351
-0.941076 0.911576
-1.02996 0.294474
-1.03624 -0.309071
-0.869837 -0.542809
-0.458505 -0.806429
0.499156 -0.510012

0.922206 0.124096
0.725315 0.433366
0.104595 0.910077
-0.171395 0.967197
-0.306571 1.31568
-0.791932 1.4462
-0.82733 1.13634
-0.941076 0.911576
-1.02996 0.294474
-1.03624 -0.309071
-0.869837 -0.542809
-0.458505 -0.806429
0.499156 -0.510012

0.922206 0.124096
0.725315 0.433366
0.104595 0.910077
-0.171395 0.967197
-0.306571 1.31568
-0.894892 1.36392
-1.03797 1.18552
-0.99419 1.00797
-1.02996 0.294474
-1.03624 -0.309071
-0.869837 -0.542809
-0.458505 -0.806429
0.499156 -0.510012

0.922206 0.124096
0.725315 0.433366
0.104595 0.910077
-0.171395 0.967197
-0.53776 1.37713
-0.976014 1.46895
-1.02531 1.29037
-0.99419 1.00797
-1.02996 0.294474
-1.03624 -0.309071
-0.869837 -0.542809
-0.458505 -0.806429
0.499156 -0.510012

0.922206 0.124096
0.725315 0.433366
0.104595 0.910077
-0.313944 1.24418
-0.585753 1.70321
-0.850956 1.57905
-1.02531 1.29037
-0.99419 1.00797
-1.02996 0.294474
-1.03624 -0.309071
-0.869837 -0.542809
-0.458505 -0.806429
0.499156 -0.510012

0.922206 0.124096
0.725315 0.433366
0.104595 0.910077
-0.44203 1.52812
-0.673769 2.0089
-0.800872 1.75189
-1.02531 1.29037
-0.99419 1.00797
-1.02996 0.294474
-1.03624 -0.309071
-0.869837 -0.542809
-0.458505 -0.806429
0.499156 -0.510012

0.922206 0.124096
0.725315 0.433366
0.104595 0.910077
-0.428119 1.6843
-0.463049 2.00205
-0.668195 1.83401
-1.02531 1.29037
-0.99419 1.00797
-1.02996 0.294474
-1.03624 -0.309071
-0.869837 -0.542809
-0.458505 -0.806429
0.499156 -0.510012

0.922206 0.124096
0.725315 0.433366
0.104595 0.910077
-0.428119 1.6843
-0.463049 2.00205
-0.668195 1.83401
-1.02531 1.29037
-0.99419 1.00797
-1.02996 0.294474
-1.03624 -0.309071
-0.869837 -0.542809
-0.241091 -0.936371
0.269105 -1.04061

0.922206 0.124096
0.725315 0.433366
0.104595 0.910077
-0.428119 1.6843
-0.463049 2.00205
-0.668195 1.83401
-1.02531 1.29037
-0.99419 1.00797
-1.02996 0.294474
-1.03624 -0.309071
-0.682159 -0.759257
-0.286351 -1.13892
0.0816683 -1.09311

0.922206 0.124096
0.725315 0.433366
0.104595 0.910077
-0.418881 1.85373
-0.414653 2.154
-0.580081 1.95425
-1.02531 1.29037
-0.99419 1.00797
-1.02996 0.294474
-1.03624 -0.309071
-0.682159 -0.759257
-0.286351 -1.13892
0.0816683 -1.09311

0.922206 0.124096
0.725315 0.433366
0.104595 0.910077
-0.314372 1.93444
-0.173346 2.11259
-0.42274 2.00202
-1.02531 1.29037
-0.99419 1.00797
-1.02996 0.294474
-1.03624 -0.309071
-0.682159 -0.759257
-0.286351 -1.13892
0.0816683 -1.09311

0.922206 0.124096
0.725315 0.433366
0.104595 0.910077
-0.146208 2.05395
0.112712 2.25618
-0.219148 2.09944
-1.02531 1.29037
-0.99419 1.00797
-1.02996 0.294474
-1.03624 -0.309071
-0.682159 -0.759257
-0.286351 -1.13892
0.0816683 -1.09311

0.922206 0.124096
0.725315 0.433366
0.104595 0.910077
0.0971469 2.10158
0.485731 2.21317
0.0479945 2.13223
-1.02531 1.29037
-0.99419 1.00797
-1.02996 0.294474
-1.03624 -0.309071
-0.682159 -0.759257
-0.286351 -1.13892
0.0816683 -1.09311

0.922206 0.124096
0.725315 0.433366
0.104595 0.910077
0.260733 2.036
0.573124 1.97366
0.22757 2.05668
-1.02531 1.29037
-0.99419 1.00797
-1.02996 0.294474
-1.03624 -0.309071
-0.682159 -0.759257
-0.286351 -1.13892
0.0816683 -1.09311

0.922206 0.124096
0.725315 0.433366
0.104595 0.910077
0.43573 1.95942
0.74648 1.84097
0.413329 1.97339
-1.02531 1.29037
-0.99419 1.00797
-1.02996 0.294474
-1.03624 -0.309071
-0.682159 -0.759257
-0.286351 -1.13892
0.0816683 -1.09311

0.922206 0.124096
0.725315 0.433366
0.104595 0.910077
0.618385 1.87544
0.940017 1.73335
0.603236 1.88489
-1.02531 1.29037
-0.99419 1.00797
-1.02996 0.294474
-1.03624 -0.309071
-0.682159 -0.759257
-0.286351 -1.13892
0.0816683 -1.09311

0.922206 0.124096
0.725315 0.433366
0.104595 0.910077
0.644738 1.7865
0.756956 1.63164
0.634481 1.7929
-1.02531 1.29037
-0.99419 1.00797
-1.02996 0.294474
-1.03624 -0.309071
-0.682159 -0.759257
-0.286351 -1.13892
0.0816683 -1.09311

0.947262 0.245171
0.934625 0.484141
0.392997 0.777995
0.644738 1.7865
0.756956 1.63164
0.634481 1.7929
-1.02531 1.29037
-0.99419 1.00797
-1.02996 0.294474
-1.03624 -0.309071
-0.682159 -0.759257
-0.286351 -1.13892
0.0816683 -1.09311

0.932078 0.391301
0.908265 0.648475
0.55589 0.752936
0.644738 1.7865
0.756956 1.63164
0.634481 1.7929
-1.02531 1.29037
-0.99419 1.00797
-1.02996 0.294474
-1.03624 -0.309071
-0.682159 -0.759257
-0.286351 -1.13892
0.0816683 -1.09311

0.983739 -0.286622
0.937664 0.280411
0.55589 0.752936
0.644738 1.7865
0.756956 1.63164
0.634481 1.7929
-1.02531 1.29037
-0.99419 1.00797
-1.02996 0.294474
-1.03624 -0.309071
-0.682159 -0.759257
-0.286351 -1.13892
0.0816683 -1.09311

0.983739 -0.286622
0.937664 0.280411
0.55589 0.752936
0.644738 1.7865
0.756956 1.63164
0.634481 1.7929
-0.889348 1.13361
-0.694645 0.849934
-0.892512 0.456079
-1.03624 -0.309071
-0.682159 -0.759257
-0.286351 -1.13892
0.0816683 -1.09311

0.983739 -0.286622
0.937664 0.280411
0.55589 0.752936
0.644738 1.7865
0.756956 1.63164
0.634481 1.7929
-0.889348 1.13361
-0.694645 0.849934
-0.892512 0.456079
-1.03624 -0.309071
-0.682159 -0.759257
-0.0993801 -1.06273
0.247426 -0.9465

0.983739 -0.286622
0.639423 0.541096
0.134247 1.01618
0.439668 1.56815
0.756956 1.63164
0.634481 1.7929
-0.889348 1.13361
-0.694645 0.849934
-0.892512 0.456079
-1.03624 -0.309071
-0.682159 -0.759257
-0.0993801 -1.06273
0.247426 -0.9465

0.983739 -0.286622
0.639423 0.541096
0.134247 1.01618
0.439668 1.56815
0.756956 1.63164
0.634481 1.7929
-0.889348 1.13361
-0.694645 0.849934
-0.892512 0.456079
-1.03624 -0.309071
-0.682159 -0.759257
0.122508 -0.947651
0.514607 -0.759702

0.983739 -0.286622
0.639423 0.541096
0.134247 1.01618
0.439668 1.56815
0.756956 1.63164
0.634481 1.7929
-0.889348 1.13361
-0.759632 0.644255
-0.898181 0.262202
-0.993126 -0.14797
-0.682159 -0.759257
0.122508 -0.947651
0.514607 -0.759702

0.988872 -0.10145
0.912164 0.358731
0.407529 0.790115
0.439668 1.56815
0.756956 1.63164
0.634481 1.7929
-0.889348 1.13361
-0.759632 0.644255
-0.898181 0.262202
-0.993126 -0.14797
-0.682159 -0.759257
0.122508 -0.947651
0.514607 -0.759702

0.988872 -0.10145
0.912164 0.358731
0.407529 0.790115
0.439668 1.56815
0.613081 1.81059
0.381714 2.10055
-0.514875 1.46937
-0.759632 0.644255
-0.898181 0.262202
-0.993126 -0.14797
-0.682159 -0.759257
0.122508 -0.947651
0.514607 -0.759702

0.988872 -0.10145
0.912164 0.358731
0.407529 0.790115
0.439668 1.56815
0.613081 1.81059
0.381714 2.10055
-0.478798 1.22774
-0.48811 0.686342
-0.741726 0.399694
-0.993126 -0.14797
-0.682159 -0.759257
0.122508 -0.947651
0.514607 -0.759702

0.988872 -0.10145
0.912164 0.358731
0.407529 0.790115
0.439668 1.56815
0.613081 1.81059
0.381714 2.10055
-0.422789 1.12508
-0.346219 0.847504
-0.603354 0.556415
-0.993126 -0.14797
-0.682159 -0.759257
0.122508 -0.947651
0.514607 -0.759702

0.988872 -0.10145
0.912164 0.358731
0.407529 0.790115
0.439668 1.56815
0.613081 1.81059
0.0124869 1.9754
-0.707055 1.55834
-0.488003 1.11387
-0.603354 0.556415
-0.993126 -0.14797
-0.682159 -0.759257
0.122508 -0.947651
0.514607 -0.759702

1.07254 -0.0250684
0.970703 0.246933
0.407529 0.790115
0.439668 1.56815
0.613081 1.81059
0.0124869 1.9754
-0.707055 1.55834
-0.488003 1.11387
-0.603354 0.556415
-0.993126 -0.14797
-0.682159 -0.759257
0.122508 -0.947651
0.514607 -0.759702

1.07254 -0.0250684
0.970703 0.246933
0.407529 0.790115
0.439668 1.56815
0.613081 1.81059
0.0124869 1.9754
-0.707055 1.55834
-0.488003 1.11387
-0.603354 0.556415
-0.993126 -0.14797
-0.682159 -0.759257
0.239851 -0.963924
0.503619 -0.940454

1.07254 -0.0250684
0.970703 0.246933
0.407529 0.790115
0.439668 1.56815
0.613081 1.81059
0.0124869 1.9754
-0.859892 1.38523
-1.02307 1.0283
-0.788343 0.693948
-0.993126 -0.14797
-0.682159 -0.759257
0.239851 -0.963924
0.503619 -0.940454

1.07254 -0.0250684
0.970703 0.246933
0.407529 0.790115
0.48925 1.67077
0.60326 1.87772
0.194174 1.95208
-0.859892 1.38523
-1.02307 1.0283
-0.788343 0.693948
-0.993126 -0.14797
-0.682159 -0.759257
0.239851 -0.963924
0.503619 -0.940454

1.07254 -0.0250684
0.970703 0.246933
0.407529 0.790115
0.48925 1.67077
0.60326 1.87772
0.194174 1.95208
-0.859892 1.38523
-1.02307 1.0283
-0.822784 0.387366
-0.923272 -0.262008
-0.749352 -0.6176
0.239851 -0.963924
0.503619 -0.940454

1.07254 -0.0250684
0.918186 0.417083
0.701647 0.797523
0.584852 1.40288
0.60326 1.87772
0.194174 1.95208
-0.859892 1.38523
-1.02307 1.0283
-0.822784 0.387366
-0.923272 -0.262008
-0.749352 -0.6176
0.239851 -0.963924
0.503619 -0.940454

1.07254 -0.0250684
0.918186 0.417083
0.793197 1.04376
0.895673 1.55046
0.725 1.7925
0.194174 1.95208
-0.859892 1.38523
-1.02307 1.0283
-0.822784 0.387366
-0.923272 -0.262008
-0.749352 -0.6176
0.239851 -0.963924
0.503619 -0.940454

1.07254 -0.0250684
0.918186 0.417083
0.793197 1.04376
0.895673 1.55046
0.725 1.7925
0.194174 1.95208
-0.902772 1.29793
-1.00581 1.08193
-0.877021 0.605469
-0.923272 -0.262008
-0.749352 -0.6176
0.239851 -0.963924
0.503619 -0.940454

1.07254 -0.0250684
0.851584 0.503445
0.723551 0.786869
0.835943 1.29086
0.725 1.7925
0.194174 1.95208
-0.902772 1.29793
-1.00581 1.08193
-0.877021 0.605469
-0.923272 -0.262008
-0.749352 -0.6176
0.239851 -0.963924
0.503619 -0.940454

1.07254 -0.0250684
0.851584 0.503445
0.723551 0.786869
0.835943 1.29086
0.725 1.7925
0.194174 1.95208
-0.902772 1.29793
-1.00581 1.08193
-0.877021 0.605469
-0.855296 -0.425803
-0.712506 -0.75378
-0.0462923 -0.914016
0.503619 -0.940454

1.07254 -0.0250684
0.851584 0.503445
0.723551 0.786869
0.835943 1.29086
0.725 1.7925
0.194174 1.95208
-0.902772 1.29793
-1.00581 1.08193
-0.914365 0.391247
-0.963231 -0.182786
-0.799806 -0.555254
-0.0462923 -0.914016
0.503619 -0.940454

1.07254 -0.0250684
0.851584 0.503445
0.723551 0.786869
0.835943 1.29086
0.535711 1.91592
0.123996 2.13683
-0.599071 1.57113
-1.00581 1.08193
-0.914365 0.391247
-0.963231 -0.182786
-0.799806 -0.555254
-0.0462923 -0.914016
0.503619 -0.940454

1.07254 -0.0250684
0.851584 0.503445
0.723551 0.786869
0.835943 1.29086
0.535711 1.91592
0.123996 2.13683
-0.599071 1.57113
-1.00581 1.08193
-0.914365 0.391247
-0.963231 -0.182786
-0.799806 -0.555254
0.179136 -0.819163
0.649825 -0.686986

1.07254 -0.0250684
0.851584 0.503445
0.723551 0.786869
0.835943 1.29086
0.535711 1.91592
0.123996 2.13683
-0.599071 1.57113
-1.00581 1.08193
-0.914365 0.391247
-0.963231 -0.182786
-0.498596 -0.719369
0.194655 -1.02805
0.514307 -0.811414

1.07254 -0.0250684
0.851584 0.503445
0.723551 0.786869
0.835943 1.29086
0.535711 1.91592
0.123996 2.13683
-0.599071 1.57113
-1.00581 1.08193
-0.914365 0.391247
-0.963231 -0.182786
-0.408876 -0.863786
-0.0986132 -1.15583
0.299677 -0.928174

1.07254 -0.0250684
0.851584 0.503445
0.723551 0.786869
0.835943 1.29086
0.535711 1.91592
-0.0929696 2.12579
-0.599761 1.96376
-0.8842 1.38702
-0.914365 0.391247
-0.963231 -0.182786
-0.408876 -0.863786
-0.0986132 -1.15583
0.299677 -0.928174

1.07254 -0.0250684
0.851584 0.503445
0.723551 0.786869
0.825201 1.50281
0.731734 1.97828
0.173923 2.0882
-0.599761 1.96376
-0.8842 1.38702
-0.914365 0.391247
-0.963231 -0.182786
-0.408876 -0.863786
-0.0986132 -1.15583
0.299677 -0.928174

1.07254 -0.0250684
0.851584 0.503445
0.723551 0.786869
0.825201 1.50281
0.731734 1.97828
0.173923 2.0882
-0.65945 1.82552
-0.821808 1.47074
-0.880274 0.721753
-0.963231 -0.182786
-0.408876 -0.863786
-0.0986132 -1.15583
0.299677 -0.928174

1.07254 -0.0250684
0.851584 0.503445
0.723551 0.786869
0.825201 1.50281
0.731734 1.97828
0.173923 2.0882
-0.65945 1.82552
-0.821808 1.47074
-0.945597 0.566639
-1.06448 0.10059
-0.614343 -0.547529
-0.0986132 -1.15583
0.299677 -0.928174

1.07254 -0.0250684
0.851584 0.503445
0.723551 0.786869
0.825201 1.50281
0.731734 1.97828
0.173923 2.0882
-0.65945 1.82552
-0.821808 1.47074
-0.945597 0.566639
-0.986062 -0.0478346
-0.751655 -0.438417
-0.306574 -0.931724
0.299677 -0.928174

1.07254 -0.0250684
0.718048 0.591138
0.484479 0.796571
0.699466 1.29498
0.731734 1.97828
0.173923 2.0882
-0.65945 1.82552
-0.821808 1.47074
-0.945597 0.566639
-0.986062 -0.0478346
-0.751655 -0.438417
-0.306574 -0.931724
0.299677 -0.928174

1.07254 -0.0250684
0.718048 0.591138
0.484479 0.796571
0.699466 1.29498
0.731734 1.97828
0.173923 2.0882
-0.65945 1.82552
-0.697411 1.27293
-0.542837 0.738906
-0.813225 0.202203
-0.751655 -0.438417
-0.306574 -0.931724
0.299677 -0.928174

1.01904 -0.00658045
0.800976 0.417272
0.484479 0.796571
0.699466 1.29498
0.731734 1.97828
0.173923 2.0882
-0.65945 1.82552
-0.697411 1.27293
-0.542837 0.738906
-0.813225 0.202203
-0.751655 -0.438417
-0.306574 -0.931724
0.299677 -0.928174

1.01904 -0.00658045
0.800976 0.417272
0.484479 0.796571
0.699466 1.29498
0.731734 1.97828
0.173923 2.0882
-0.65945 1.82552
-0.697411 1.27293
-0.542837 0.738906
-0.813225 0.202203
-0.751655 -0.438417
-0.0113174 -0.951751
0.594635 -0.981095

1.01904 -0.00658045
0.800976 0.417272
0.484479 0.796571
0.699466 1.29498
0.731734 1.97828
0.173923 2.0882
-0.65945 1.82552
-0.697411 1.27293
-0.618067 0.61051
-0.80349 0.274191
-0.765798 -0.222403
-0.0113174 -0.951751
0.594635 -0.981095

1.01904 -0.00658045
0.800976 0.417272
0.484479 0.796571
0.699466 1.29498
0.731734 1.97828
0.173923 2.0882
-0.65945 1.82552
-0.697411 1.27293
-0.758669 0.607444
-1.02154 0.513791
-0.8633 0.0175294
-0.0113174 -0.951751
0.594635 -0.981095

1.01904 -0.00658045
0.800976 0.417272
0.484479 0.796571
0.641431 1.50011
0.561479 1.99424
0.268797 2.06253
-0.65945 1.82552
-0.697411 1.27293
-0.758669 0.607444
-1.02154 0.513791
-0.8633 0.0175294
-0.0113174 -0.951751
0.594635 -0.981095

0.9845 0.111394
0.87366 0.404594
0.605048 0.681501
0.641431 1.50011
0.561479 1.99424
0.268797 2.06253
-0.65945 1.82552
-0.697411 1.27293
-0.758669 0.607444
-1.02154 0.513791
-0.8633 0.0175294
-0.0113174 -0.951751
0.594635 -0.981095

0.9845 0.111394
0.620846 0.547952
0.161366 0.841726
0.455818 1.32645
0.561479 1.99424
0.268797 2.06253
-0.65945 1.82552
-0.697411 1.27293
-0.758669 0.607444
-1.02154 0.513791
-0.8633 0.0175294
-0.0113174 -0.951751
0.594635 -0.981095

0.9845 0.111394
0.620846 0.547952
0.161366 0.841726
0.455818 1.32645
0.561479 1.99424
0.268797 2.06253
-0.65945 1.82552
-0.697411 1.27293
-0.758669 0.607444
-0.986468 0.192369
-0.890186 -0.434873
-0.267777 -0.850241
0.594635 -0.981095

0.9845 0.111394
0.620846 0.547952
0.161366 0.841726
0.455818 1.32645
0.561479 1.99424
0.268797 2.06253
-0.65945 1.82552
-0.697411 1.27293
-0.758669 0.607444
-0.986468 0.192369
-0.749113 -0.568734
-0.364551 -0.88666
0.308384 -0.957757

0.9845 0.111394
0.620846 0.547952
0.161366 0.841726
0.455818 1.32645
0.561479 1.99424
0.105549 2.07329
-0.39662 2.02622
-0.583352 1.5103
-0.758669 0.607444
-0.986468 0.192369
-0.749113 -0.568734
-0.364551 -0.88666
0.308384 -0.957757

0.922773 -0.262179
0.700744 0.276632
0.161366 0.841726
0.455818 1.32645
0.561479 1.99424
0.105549 2.07329
-0.39662 2.02622
-0.583352 1.5103
-0.758669 0.607444
-0.986468 0.192369
-0.749113 -0.568734
-0.364551 -0.88666
0.308384 -0.957757

0.922773 -0.262179
0.700744 0.276632
0.161366 0.841726
0.455818 1.32645
0.561479 1.99424
-0.124378 2.02383
-0.618027 1.9341
-0.616647 1.62153
-0.758669 0.607444
-0.986468 0.192369
-0.749113 -0.568734
-0.364551 -0.88666
0.308384 -0.957757

0.922773 -0.262179
0.700744 0.276632
0.343148 1.05756
0.706761 1.5259
0.629372 1.88202
-0.124378 2.02383
-0.618027 1.9341
-0.616647 1.62153
-0.758669 0.607444
-0.986468 0.192369
-0.749113 -0.568734
-0.364551 -0.88666
0.308384 -0.957757

0.922773 -0.262179
0.700744 0.276632
0.343148 1.05756
0.706761 1.5259
0.629372 1.88202
-0.124378 2.02383
-0.618027 1.9341
-0.616647 1.62153
-0.770401 0.435018
-0.850645 0.0522474
-0.763558 -0.407296
-0.364551 -0.88666
0.308384 -0.957757

0.922773 -0.262179
0.700744 0.276632
0.343148 1.05756
0.706761 1.5259
0.629372 1.88202
-0.124378 2.02383
-0.618027 1.9341
-0.640241 1.33237
-0.71917 0.555075
-0.808002 0.207298
-0.763558 -0.407296
-0.364551 -0.88666
0.308384 -0.957757

0.922773 -0.262179
0.700744 0.276632
0.343148 1.05756
0.706761 1.5259
0.629372 1.88202
-0.124378 2.02383
-0.618027 1.9341
-0.640241 1.33237
-0.71917 0.555075
-0.808002 0.207298
-0.763558 -0.407296
-0.261645 -0.97511
0.084189 -1.13387

0.922773 -0.262179
0.700744 0.276632
0.343148 1.05756
0.706761 1.5259
0.629372 1.88202
-0.124378 2.02383
-0.618027 1.9341
-0.640241 1.33237
-0.71917 0.555075
-0.808002 0.207298
-0.689367 -0.602289
-0.434762 -1.06582
-0.0802577 -1.12433

0.922773 -0.262179
0.700744 0.276632
0.343148 1.05756
0.706761 1.5259
0.629372 1.88202
-0.124378 2.02383
-0.618027 1.9341
-0.640241 1.33237
-0.71917 0.555075
-0.805756 -0.0754605
-0.769642 -0.745748
-0.537288 -0.9912
-0.0802577 -1.12433

0.922773 -0.262179
0.700744 0.276632
0.343148 1.05756
0.706761 1.5259
0.629372 1.88202
-0.124378 2.02383
-0.618027 1.9341
-0.640241 1.33237
-0.797781 0.287726
-0.946563 -0.310719
-0.834125 -0.648965
-0.537288 -0.9912
-0.0802577 -1.12433

0.922773 -0.262179
0.700744 0.276632
0.343148 1.05756
0.706761 1.5259
0.629372 1.88202
-0.124378 2.02383
-0.618027 1.9341
-0.640241 1.33237
-0.797781 0.287726
-0.877738 -0.391469
-0.736992 -0.613504
-0.582708 -0.882
-0.0802577 -1.12433

0.922773 -0.262179
0.700744 0.276632
0.343148 1.05756
0.706761 1.5259
0.629372 1.88202
-0.124378 2.02383
-0.618027 1.9341
-0.796054 0.961496
-1.08879 0.0795562
-0.967441 -0.282501
-0.736992 -0.613504
-0.582708 -0.882
-0.0802577 -1.12433

0.922773 -0.262179
0.700744 0.276632
0.343148 1.05756
0.706761 1.5259
0.629372 1.88202
-0.124378 2.02383
-0.618027 1.9341
-0.852664 0.80564
-1.02461 0.311173
-0.976479 -0.0930571
-0.736992 -0.613504
-0.582708 -0.882
-0.0802577 -1.12433

0.922773 -0.262179
0.700744 0.276632
0.343148 1.05756
0.706761 1.5259
0.629372 1.88202
-0.124378 2.02383
-0.696074 1.6202
-0.886845 0.801567
-0.99012 0.446475
-0.976479 -0.0930571
-0.736992 -0.613504
-0.582708 -0.882
-0.0802577 -1.12433

0.922773 -0.262179
0.700744 0.276632
0.343148 1.05756
0.706761 1.5259
0.629372 1.88202
-0.228053 1.98965
-0.554626 1.82205
-0.780073 1.10474
-0.99012 0.446475
-0.976479 -0.0930571
-0.736992 -0.613504
-0.582708 -0.882
-0.0802577 -1.12433

0.922773 -0.262179
0.700744 0.276632
0.343148 1.05756
0.706761 1.5259
0.428631 1.99706
-0.135765 2.21332
-0.429502 1.95359
-0.780073 1.10474
-0.99012 0.446475
-0.976479 -0.0930571
-0.736992 -0.613504
-0.582708 -0.882
-0.0802577 -1.12433

0.922773 -0.262179
0.700744 0.276632
0.343148 1.05756
0.706761 1.5259
0.428631 1.99706
-0.135765 2.21332
-0.429502 1.95359
-0.703209 0.96622
-0.637234 0.557013
-0.845712 0.0971478
-0.736992 -0.613504
-0.582708 -0.882
-0.0802577 -1.12433

0.922773 -0.262179
0.700744 0.276632
0.343148 1.05756
0.622812 1.71037
0.408037 2.14303
0.0108535 2.20967
-0.429502 1.95359
-0.703209 0.96622
-0.637234 0.557013
-0.845712 0.0971478
-0.736992 -0.613504
-0.582708 -0.882
-0.0802577 -1.12433

0.922773 -0.262179
0.700744 0.276632
0.495103 1.28745
0.821999 1.84664
0.542284 2.07672
0.0108535 2.20967
-0.429502 1.95359
-0.703209 0.96622
-0.637234 0.557013
-0.845712 0.0971478
-0.736992 -0.613504
-0.582708 -0.882
-0.0802577 -1.12433

0.922773 -0.262179
0.700744 0.276632
0.495103 1.28745
0.821999 1.84664
0.542284 2.07672
0.0108535 2.20967
-0.429502 1.95359
-0.703209 0.96622
-0.637234 0.557013
-0.845712 0.0971478
-0.736992 -0.613504
-0.424152 -0.914108
-0.0226407 -1.03507

0.889462 -0.0282518
0.771931 0.508551
0.577828 1.10093
0.821999 1.84664
0.542284 2.07672
0.0108535 2.20967
-0.429502 1.95359
-0.703209 0.96622
-0.637234 0.557013
-0.845712 0.0971478
-0.736992 -0.613504
-0.424152 -0.914108
-0.0226407 -1.03507

0.753712 -0.0796594
0.75247 0.343913
0.577828 1.10093
0.821999 1.84664
0.542284 2.07672
0.0108535 2.20967
-0.429502 1.95359
-0.703209 0.96622
-0.637234 0.557013
-0.845712 0.0971478
-0.736992 -0.613504
-0.424152 -0.914108
-0.0226407 -1.03507

0.858425 -0.595279
0.792268 0.0353278
0.577828 1.10093
0.821999 1.84664
0.542284 2.07672
0.0108535 2.20967
-0.429502 1.95359
-0.703209 0.96622
-0.637234 0.557013
-0.845712 0.0971478
-0.736992 -0.613504
-0.424152 -0.914108
-0.0226407 -1.03507

0.858425 -0.595279
0.792268 0.0353278
0.577828 1.10093
0.821999 1.84664
0.542284 2.07672
0.0108535 2.20967
-0.429502 1.95359
-0.703209 0.96622
-0.637234 0.557013
-0.845712 0.0971478
-0.736992 -0.613504
-0.202468 -0.96411
0.27959 -1.0815

0.858425 -0.595279
0.792268 0.0353278
0.577828 1.10093
0.821999 1.84664
0.542284 2.07672
0.0108535 2.20967
-0.528872 1.75147
-0.772356 1.13323
-0.680889 0.729466
-0.845712 0.0971478
-0.736992 -0.613504
-0.202468 -0.96411
0.27959 -1.0815

0.858425 -0.595279
0.792268 0.0353278
0.577828 1.10093
0.821999 1.84664
0.542284 2.07672
-0.179249 2.18034
-0.651006 2.00022
-0.753006 1.39177
-0.680889 0.729466
-0.845712 0.0971478
-0.736992 -0.613504
-0.202468 -0.96411
0.27959 -1.0815

0.858425 -0.595279
0.634339 0.292559
0.308437 1.02897
0.656142 1.62088
0.542284 2.07672
-0.179249 2.18034
-0.651006 2.00022
-0.753006 1.39177
-0.680889 0.729466
-0.845712 0.0971478
-0.736992 -0.613504
-0.202468 -0.96411
0.27959 -1.0815

0.858425 -0.595279
0.634339 0.292559
0.308437 1.02897
0.561453 1.74827
0.369705 2.0933
-0.0518287 2.15898
-0.651006 2.00022
-0.753006 1.39177
-0.680889 0.729466
-0.845712 0.0971478
-0.736992 -0.613504
-0.202468 -0.96411
0.27959 -1.0815

0.842937 -0.357941
0.752223 0.297854
0.43875 0.835718
0.561453 1.74827
0.369705 2.0933
-0.0518287 2.15898
-0.651006 2.00022
-0.753006 1.39177
-0.680889 0.729466
-0.845712 0.0971478
-0.736992 -0.613504
-0.202468 -0.96411
0.27959 -1.0815

1.02568 -0.245661
0.844149 0.166259
0.43875 0.835718
0.561453 1.74827
0.369705 2.0933
-0.0518287 2.15898
-0.651006 2.00022
-0.753006 1.39177
-0.680889 0.729466
-0.845712 0.0971478
-0.736992 -0.613504
-0.202468 -0.96411
0.27959 -1.0815

1.02568 -0.245661
0.844149 0.166259
0.43875 0.835718
0.561453 1.74827
0.369705 2.0933
-0.0518287 2.15898
-0.651006 2.00022
-0.753006 1.39177
-0.680889 0.729466
-0.845712 0.0971478
-0.736992 -0.613504
-0.0436885 -0.947214
0.365105 -0.952599

1.02568 -0.245661
0.844149 0.166259
0.43875 0.835718
0.561453 1.74827
0.369705 2.0933
-0.0518287 2.15898
-0.651006 2.00022
-0.753006 1.39177
-0.680889 0.729466
-0.754868 -0.1386
-0.568846 -0.745823
-0.163595 -0.90853
0.365105 -0.952599

1.02568 -0.245661
0.844149 0.166259
0.43875 0.835718
0.561453 1.74827
0.369705 2.0933
-0.0518287 2.15898
-0.716242 1.92156
-0.857195 1.61024
-0.738296 0.983746
-0.754868 -0.1386
-0.568846 -0.745823
-0.163595 -0.90853
0.365105 -0.952599

1.02568 -0.245661
0.844149 0.166259
0.43875 0.835718
0.561453 1.74827
0.369705 2.0933
-0.0518287 2.15898
-0.790368 1.75919
-0.958315 1.39056
-0.80666 1.06636
-0.754868 -0.1386
-0.568846 -0.745823
-0.163595 -0.90853
0.365105 -0.952599

1.02568 -0.245661
0.844149 0.166259
0.43875 0.835718
0.561453 1.74827
0.369705 2.0933
-0.0518287 2.15898
-0.790368 1.75919
-0.958315 1.39056
-0.909107 0.892804
-1.06975 0.242406
